digraph Tree {
node [shape=box, style="filled, rounded", color="black", fontname="helvetica"] ;
edge [fontname="helvetica"] ;
0 [label="transmission <= 0.5\nsquared_error = 0.007\nsamples = 6502\nvalue = 0.061", fillcolor="#fdf7f3"] ;
1 [label="name <= 3.5\nsquared_error = 0.028\nsamples = 830\nvalue = 0.185", fillcolor="#fae8da"] ;
0 -> 1 [labeldistance=2.5, labelangle=45, headlabel="True"] ;
2 [label="year <= 2017.5\nsquared_error = 0.036\nsamples = 124\nvalue = 0.387", fillcolor="#f5ceb2"] ;
1 -> 2 ;
3 [label="year <= 2012.5\nsquared_error = 0.006\nsamples = 47\nvalue = 0.169", fillcolor="#fbeade"] ;
2 -> 3 ;
4 [label="year <= 2007.5\nsquared_error = 0.001\nsamples = 23\nvalue = 0.11", fillcolor="#fcf1e9"] ;
3 -> 4 ;
5 [label="owner <= 1.5\nsquared_error = 0.0\nsamples = 2\nvalue = 0.059", fillcolor="#fdf8f3"] ;
4 -> 5 ;
6 [label="squared_error = 0.0\nsamples = 1\nvalue = 0.045", fillcolor="#fef9f6"] ;
5 -> 6 ;
7 [label="squared_error = -0.0\nsamples = 1\nvalue = 0.072", fillcolor="#fdf6f1"] ;
5 -> 7 ;
8 [label="km_driven <= 0.027\nsquared_error = 0.001\nsamples = 21\nvalue = 0.114", fillcolor="#fcf1e8"] ;
4 -> 8 ;
9 [label="owner <= 1.0\nsquared_error = 0.0\nsamples = 7\nvalue = 0.094", fillcolor="#fdf3ec"] ;
8 -> 9 ;
10 [label="km_driven <= 0.019\nsquared_error = 0.0\nsamples = 5\nvalue = 0.102", fillcolor="#fcf2eb"] ;
9 -> 10 ;
11 [label="squared_error = 0.0\nsamples = 3\nvalue = 0.105", fillcolor="#fcf2ea"] ;
10 -> 11 ;
12 [label="squared_error = -0.0\nsamples = 2\nvalue = 0.097", fillcolor="#fcf3ec"] ;
10 -> 12 ;
13 [label="fuel <= 2.0\nsquared_error = 0.0\nsamples = 2\nvalue = 0.075", fillcolor="#fdf6f0"] ;
9 -> 13 ;
14 [label="squared_error = 0.0\nsamples = 1\nvalue = 0.08", fillcolor="#fdf5ef"] ;
13 -> 14 ;
15 [label="squared_error = 0.0\nsamples = 1\nvalue = 0.07", fillcolor="#fdf6f1"] ;
13 -> 15 ;
16 [label="seller_type <= 0.5\nsquared_error = 0.001\nsamples = 14\nvalue = 0.125", fillcolor="#fcefe6"] ;
8 -> 16 ;
17 [label="owner <= 1.0\nsquared_error = 0.0\nsamples = 4\nvalue = 0.097", fillcolor="#fcf3ec"] ;
16 -> 17 ;
18 [label="squared_error = 0.0\nsamples = 1\nvalue = 0.107", fillcolor="#fcf1ea"] ;
17 -> 18 ;
19 [label="year <= 2011.0\nsquared_error = 0.0\nsamples = 3\nvalue = 0.093", fillcolor="#fdf3ed"] ;
17 -> 19 ;
20 [label="squared_error = 0.0\nsamples = 2\nvalue = 0.095", fillcolor="#fdf3ec"] ;
19 -> 20 ;
21 [label="squared_error = -0.0\nsamples = 1\nvalue = 0.09", fillcolor="#fdf4ed"] ;
19 -> 21 ;
22 [label="km_driven <= 0.048\nsquared_error = 0.001\nsamples = 10\nvalue = 0.136", fillcolor="#fbeee4"] ;
16 -> 22 ;
23 [label="year <= 2010.5\nsquared_error = 0.001\nsamples = 5\nvalue = 0.161", fillcolor="#fbebdf"] ;
22 -> 23 ;
24 [label="km_driven <= 0.042\nsquared_error = 0.0\nsamples = 2\nvalue = 0.185", fillcolor="#fae8da"] ;
23 -> 24 ;
25 [label="squared_error = 0.0\nsamples = 1\nvalue = 0.198", fillcolor="#fae6d8"] ;
24 -> 25 ;
26 [label="squared_error = -0.0\nsamples = 1\nvalue = 0.173", fillcolor="#fbe9dd"] ;
24 -> 26 ;
27 [label="owner <= 1.0\nsquared_error = 0.001\nsamples = 3\nvalue = 0.146", fillcolor="#fbede2"] ;
23 -> 27 ;
28 [label="year <= 2011.5\nsquared_error = 0.0\nsamples = 2\nvalue = 0.165", fillcolor="#fbeade"] ;
27 -> 28 ;
29 [label="squared_error = 0.0\nsamples = 1\nvalue = 0.147", fillcolor="#fbece2"] ;
28 -> 29 ;
30 [label="squared_error = 0.0\nsamples = 1\nvalue = 0.183", fillcolor="#fae8db"] ;
28 -> 30 ;
31 [label="squared_error = 0.0\nsamples = 1\nvalue = 0.107", fillcolor="#fcf1ea"] ;
27 -> 31 ;
32 [label="km_driven <= 0.062\nsquared_error = 0.0\nsamples = 5\nvalue = 0.11", fillcolor="#fcf1e9"] ;
22 -> 32 ;
33 [label="year <= 2010.0\nsquared_error = 0.0\nsamples = 4\nvalue = 0.115", fillcolor="#fcf0e8"] ;
32 -> 33 ;
34 [label="owner <= 3.0\nsquared_error = 0.0\nsamples = 2\nvalue = 0.104", fillcolor="#fcf2ea"] ;
33 -> 34 ;
35 [label="squared_error = 0.0\nsamples = 1\nvalue = 0.107", fillcolor="#fcf1ea"] ;
34 -> 35 ;
36 [label="squared_error = 0.0\nsamples = 1\nvalue = 0.1", fillcolor="#fcf2eb"] ;
34 -> 36 ;
37 [label="squared_error = 0.0\nsamples = 2\nvalue = 0.127", fillcolor="#fcefe6"] ;
33 -> 37 ;
38 [label="squared_error = -0.0\nsamples = 1\nvalue = 0.087", fillcolor="#fdf4ee"] ;
32 -> 38 ;
39 [label="name <= 2.5\nsquared_error = 0.005\nsamples = 24\nvalue = 0.225", fillcolor="#f9e3d2"] ;
3 -> 39 ;
40 [label="year <= 2014.5\nsquared_error = 0.003\nsamples = 15\nvalue = 0.193", fillcolor="#fae7d9"] ;
39 -> 40 ;
41 [label="km_driven <= 0.039\nsquared_error = 0.001\nsamples = 8\nvalue = 0.162", fillcolor="#fbebdf"] ;
40 -> 41 ;
42 [label="km_driven <= 0.022\nsquared_error = 0.0\nsamples = 6\nvalue = 0.177", fillcolor="#fae9dc"] ;
41 -> 42 ;
43 [label="year <= 2013.5\nsquared_error = 0.0\nsamples = 2\nvalue = 0.165", fillcolor="#fbeade"] ;
42 -> 43 ;
44 [label="squared_error = 0.0\nsamples = 1\nvalue = 0.173", fillcolor="#fbe9dd"] ;
43 -> 44 ;
45 [label="squared_error = 0.0\nsamples = 1\nvalue = 0.157", fillcolor="#fbebe0"] ;
43 -> 45 ;
46 [label="km_driven <= 0.028\nsquared_error = 0.001\nsamples = 4\nvalue = 0.183", fillcolor="#fae8db"] ;
42 -> 46 ;
47 [label="squared_error = 0.001\nsamples = 2\nvalue = 0.183", fillcolor="#fae8db"] ;
46 -> 47 ;
48 [label="squared_error = 0.0\nsamples = 2\nvalue = 0.183", fillcolor="#fae8db"] ;
46 -> 48 ;
49 [label="squared_error = 0.0\nsamples = 2\nvalue = 0.117", fillcolor="#fcf0e8"] ;
41 -> 49 ;
50 [label="km_driven <= 0.021\nsquared_error = 0.002\nsamples = 7\nvalue = 0.228", fillcolor="#f9e2d2"] ;
40 -> 50 ;
51 [label="km_driven <= 0.012\nsquared_error = 0.002\nsamples = 4\nvalue = 0.202", fillcolor="#fae6d7"] ;
50 -> 51 ;
52 [label="fuel <= 2.0\nsquared_error = 0.003\nsamples = 2\nvalue = 0.223", fillcolor="#f9e3d3"] ;
51 -> 52 ;
53 [label="squared_error = 0.0\nsamples = 1\nvalue = 0.28", fillcolor="#f8dcc7"] ;
52 -> 53 ;
54 [label="squared_error = -0.0\nsamples = 1\nvalue = 0.166", fillcolor="#fbeade"] ;
52 -> 54 ;
55 [label="km_driven <= 0.017\nsquared_error = 0.0\nsamples = 2\nvalue = 0.18", fillcolor="#fae8db"] ;
51 -> 55 ;
56 [label="squared_error = 0.0\nsamples = 1\nvalue = 0.173", fillcolor="#fbe9dd"] ;
55 -> 56 ;
57 [label="squared_error = 0.0\nsamples = 1\nvalue = 0.187", fillcolor="#fae7da"] ;
55 -> 57 ;
58 [label="seller_type <= 0.5\nsquared_error = 0.0\nsamples = 3\nvalue = 0.263", fillcolor="#f8decb"] ;
50 -> 58 ;
59 [label="km_driven <= 0.033\nsquared_error = 0.0\nsamples = 2\nvalue = 0.265", fillcolor="#f8deca"] ;
58 -> 59 ;
60 [label="squared_error = 0.0\nsamples = 1\nvalue = 0.263", fillcolor="#f8decb"] ;
59 -> 60 ;
61 [label="squared_error = 0.0\nsamples = 1\nvalue = 0.268", fillcolor="#f8ddca"] ;
59 -> 61 ;
62 [label="squared_error = -0.0\nsamples = 1\nvalue = 0.258", fillcolor="#f8dfcc"] ;
58 -> 62 ;
63 [label="km_driven <= 0.014\nsquared_error = 0.004\nsamples = 9\nvalue = 0.28", fillcolor="#f8dcc8"] ;
39 -> 63 ;
64 [label="km_driven <= 0.008\nsquared_error = 0.001\nsamples = 4\nvalue = 0.24", fillcolor="#f9e1cf"] ;
63 -> 64 ;
65 [label="squared_error = 0.0\nsamples = 1\nvalue = 0.288", fillcolor="#f8dbc6"] ;
64 -> 65 ;
66 [label="fuel <= 2.0\nsquared_error = 0.0\nsamples = 3\nvalue = 0.224", fillcolor="#f9e3d3"] ;
64 -> 66 ;
67 [label="squared_error = 0.0\nsamples = 2\nvalue = 0.213", fillcolor="#f9e4d5"] ;
66 -> 67 ;
68 [label="squared_error = -0.0\nsamples = 1\nvalue = 0.248", fillcolor="#f9e0ce"] ;
66 -> 68 ;
69 [label="km_driven <= 0.024\nsquared_error = 0.004\nsamples = 5\nvalue = 0.311", fillcolor="#f7d8c1"] ;
63 -> 69 ;
70 [label="year <= 2014.5\nsquared_error = 0.001\nsamples = 4\nvalue = 0.339", fillcolor="#f6d4bc"] ;
69 -> 70 ;
71 [label="squared_error = 0.0\nsamples = 2\nvalue = 0.373", fillcolor="#f5d0b5"] ;
70 -> 71 ;
72 [label="seller_type <= 0.5\nsquared_error = 0.0\nsamples = 2\nvalue = 0.305", fillcolor="#f7d9c3"] ;
70 -> 72 ;
73 [label="squared_error = 0.0\nsamples = 1\nvalue = 0.293", fillcolor="#f7dac5"] ;
72 -> 73 ;
74 [label="squared_error = 0.0\nsamples = 1\nvalue = 0.318", fillcolor="#f7d7c0"] ;
72 -> 74 ;
75 [label="squared_error = -0.0\nsamples = 1\nvalue = 0.198", fillcolor="#fae6d8"] ;
69 -> 75 ;
76 [label="year <= 2018.5\nsquared_error = 0.007\nsamples = 77\nvalue = 0.52", fillcolor="#f1be98"] ;
2 -> 76 ;
77 [label="km_driven <= 0.011\nsquared_error = 0.014\nsamples = 19\nvalue = 0.426", fillcolor="#f4c9ab"] ;
76 -> 77 ;
78 [label="name <= 2.5\nsquared_error = 0.008\nsamples = 9\nvalue = 0.355", fillcolor="#f6d2b9"] ;
77 -> 78 ;
79 [label="owner <= 1.0\nsquared_error = 0.001\nsamples = 3\nvalue = 0.264", fillcolor="#f8decb"] ;
78 -> 79 ;
80 [label="km_driven <= 0.009\nsquared_error = 0.0\nsamples = 2\nvalue = 0.288", fillcolor="#f8dbc6"] ;
79 -> 80 ;
81 [label="squared_error = 0.0\nsamples = 1\nvalue = 0.298", fillcolor="#f7d9c4"] ;
80 -> 81 ;
82 [label="squared_error = 0.0\nsamples = 1\nvalue = 0.278", fillcolor="#f8dcc8"] ;
80 -> 82 ;
83 [label="squared_error = -0.0\nsamples = 1\nvalue = 0.218", fillcolor="#f9e4d4"] ;
79 -> 83 ;
84 [label="seller_type <= 0.5\nsquared_error = 0.005\nsamples = 6\nvalue = 0.4", fillcolor="#f5cdb0"] ;
78 -> 84 ;
85 [label="km_driven <= 0.007\nsquared_error = 0.001\nsamples = 5\nvalue = 0.37", fillcolor="#f5d0b6"] ;
84 -> 85 ;
86 [label="km_driven <= 0.005\nsquared_error = 0.0\nsamples = 3\nvalue = 0.395", fillcolor="#f5cdb1"] ;
85 -> 86 ;
87 [label="squared_error = 0.0\nsamples = 2\nvalue = 0.398", fillcolor="#f5cdb0"] ;
86 -> 87 ;
88 [label="squared_error = -0.0\nsamples = 1\nvalue = 0.388", fillcolor="#f5ceb2"] ;
86 -> 88 ;
89 [label="squared_error = 0.0\nsamples = 2\nvalue = 0.333", fillcolor="#f6d5bd"] ;
85 -> 89 ;
90 [label="squared_error = 0.0\nsamples = 1\nvalue = 0.549", fillcolor="#f1ba92"] ;
84 -> 90 ;
91 [label="km_driven <= 0.012\nsquared_error = 0.01\nsamples = 10\nvalue = 0.49", fillcolor="#f2c19e"] ;
77 -> 91 ;
92 [label="squared_error = 0.0\nsamples = 3\nvalue = 0.599", fillcolor="#efb488"] ;
91 -> 92 ;
93 [label="seller_type <= 0.5\nsquared_error = 0.008\nsamples = 7\nvalue = 0.444", fillcolor="#f3c7a7"] ;
91 -> 93 ;
94 [label="name <= 2.5\nsquared_error = 0.0\nsamples = 5\nvalue = 0.388", fillcolor="#f5ceb2"] ;
93 -> 94 ;
95 [label="squared_error = 0.0\nsamples = 3\nvalue = 0.396", fillcolor="#f5cdb1"] ;
94 -> 95 ;
96 [label="squared_error = 0.0\nsamples = 2\nvalue = 0.377", fillcolor="#f5cfb4"] ;
94 -> 96 ;
97 [label="squared_error = -0.0\nsamples = 2\nvalue = 0.582", fillcolor="#f0b68c"] ;
93 -> 97 ;
98 [label="seller_type <= 0.5\nsquared_error = 0.001\nsamples = 58\nvalue = 0.55", fillcolor="#f1ba92"] ;
76 -> 98 ;
99 [label="name <= 2.5\nsquared_error = 0.0\nsamples = 57\nvalue = 0.547", fillcolor="#f1ba93"] ;
98 -> 99 ;
100 [label="km_driven <= 0.007\nsquared_error = 0.001\nsamples = 3\nvalue = 0.621", fillcolor="#efb184"] ;
99 -> 100 ;
101 [label="km_driven <= 0.004\nsquared_error = 0.0\nsamples = 2\nvalue = 0.606", fillcolor="#efb387"] ;
100 -> 101 ;
102 [label="squared_error = 0.0\nsamples = 1\nvalue = 0.621", fillcolor="#efb184"] ;
101 -> 102 ;
103 [label="squared_error = -0.0\nsamples = 1\nvalue = 0.591", fillcolor="#f0b58a"] ;
101 -> 103 ;
104 [label="squared_error = -0.0\nsamples = 1\nvalue = 0.651", fillcolor="#eead7e"] ;
100 -> 104 ;
105 [label="km_driven <= 0.006\nsquared_error = 0.0\nsamples = 54\nvalue = 0.543", fillcolor="#f1bb93"] ;
99 -> 105 ;
106 [label="km_driven <= 0.003\nsquared_error = 0.0\nsamples = 53\nvalue = 0.542", fillcolor="#f1bb94"] ;
105 -> 106 ;
107 [label="km_driven <= 0.003\nsquared_error = 0.0\nsamples = 51\nvalue = 0.543", fillcolor="#f1bb93"] ;
106 -> 107 ;
108 [label="squared_error = 0.0\nsamples = 27\nvalue = 0.539", fillcolor="#f1bb94"] ;
107 -> 108 ;
109 [label="squared_error = 0.0\nsamples = 24\nvalue = 0.549", fillcolor="#f1ba92"] ;
107 -> 109 ;
110 [label="squared_error = -0.0\nsamples = 2\nvalue = 0.519", fillcolor="#f2be98"] ;
106 -> 110 ;
111 [label="squared_error = -0.0\nsamples = 1\nvalue = 0.579", fillcolor="#f0b68c"] ;
105 -> 111 ;
112 [label="squared_error = -0.0\nsamples = 1\nvalue = 0.719", fillcolor="#eca471"] ;
98 -> 112 ;
113 [label="name <= 30.5\nsquared_error = 0.019\nsamples = 706\nvalue = 0.15", fillcolor="#fbece1"] ;
1 -> 113 ;
114 [label="seller_type <= 0.5\nsquared_error = 0.016\nsamples = 650\nvalue = 0.135", fillcolor="#fbeee4"] ;
113 -> 114 ;
115 [label="year <= 2018.5\nsquared_error = 0.026\nsamples = 243\nvalue = 0.202", fillcolor="#fae5d7"] ;
114 -> 115 ;
116 [label="fuel <= 2.0\nsquared_error = 0.014\nsamples = 194\nvalue = 0.155", fillcolor="#fbebe0"] ;
115 -> 116 ;
117 [label="year <= 2016.5\nsquared_error = 0.013\nsamples = 96\nvalue = 0.235", fillcolor="#f9e1d0"] ;
116 -> 117 ;
118 [label="km_driven <= 0.015\nsquared_error = 0.004\nsamples = 31\nvalue = 0.135", fillcolor="#fbeee4"] ;
117 -> 118 ;
119 [label="owner <= 1.0\nsquared_error = 0.001\nsamples = 4\nvalue = 0.252", fillcolor="#f8dfcd"] ;
118 -> 119 ;
120 [label="km_driven <= 0.009\nsquared_error = 0.0\nsamples = 3\nvalue = 0.268", fillcolor="#f8ddca"] ;
119 -> 120 ;
121 [label="squared_error = 0.0\nsamples = 1\nvalue = 0.248", fillcolor="#f9e0ce"] ;
120 -> 121 ;
122 [label="km_driven <= 0.014\nsquared_error = 0.0\nsamples = 2\nvalue = 0.278", fillcolor="#f8dcc8"] ;
120 -> 122 ;
123 [label="squared_error = 0.0\nsamples = 1\nvalue = 0.288", fillcolor="#f8dbc6"] ;
122 -> 123 ;
124 [label="squared_error = 0.0\nsamples = 1\nvalue = 0.268", fillcolor="#f8ddca"] ;
122 -> 124 ;
125 [label="squared_error = -0.0\nsamples = 1\nvalue = 0.203", fillcolor="#fae5d7"] ;
119 -> 125 ;
126 [label="owner <= 1.0\nsquared_error = 0.002\nsamples = 27\nvalue = 0.118", fillcolor="#fcf0e8"] ;
118 -> 126 ;
127 [label="name <= 11.5\nsquared_error = 0.002\nsamples = 21\nvalue = 0.108", fillcolor="#fcf1ea"] ;
126 -> 127 ;
128 [label="year <= 2014.0\nsquared_error = 0.001\nsamples = 6\nvalue = 0.086", fillcolor="#fdf4ee"] ;
127 -> 128 ;
129 [label="km_driven <= 0.027\nsquared_error = 0.0\nsamples = 2\nvalue = 0.057", fillcolor="#fef8f4"] ;
128 -> 129 ;
130 [label="squared_error = 0.0\nsamples = 1\nvalue = 0.062", fillcolor="#fdf7f3"] ;
129 -> 130 ;
131 [label="squared_error = -0.0\nsamples = 1\nvalue = 0.052", fillcolor="#fef8f5"] ;
129 -> 131 ;
132 [label="name <= 10.0\nsquared_error = 0.0\nsamples = 4\nvalue = 0.1", fillcolor="#fcf2eb"] ;
128 -> 132 ;
133 [label="squared_error = 0.0\nsamples = 1\nvalue = 0.125", fillcolor="#fcefe6"] ;
132 -> 133 ;
134 [label="year <= 2015.5\nsquared_error = 0.0\nsamples = 3\nvalue = 0.092", fillcolor="#fdf3ed"] ;
132 -> 134 ;
135 [label="km_driven <= 0.023\nsquared_error = 0.0\nsamples = 2\nvalue = 0.087", fillcolor="#fdf4ee"] ;
134 -> 135 ;
136 [label="squared_error = 0.0\nsamples = 1\nvalue = 0.088", fillcolor="#fdf4ee"] ;
135 -> 136 ;
137 [label="squared_error = -0.0\nsamples = 1\nvalue = 0.085", fillcolor="#fdf4ee"] ;
135 -> 137 ;
138 [label="squared_error = -0.0\nsamples = 1\nvalue = 0.102", fillcolor="#fcf2eb"] ;
134 -> 138 ;
139 [label="name <= 23.5\nsquared_error = 0.002\nsamples = 15\nvalue = 0.116", fillcolor="#fcf0e8"] ;
127 -> 139 ;
140 [label="name <= 14.0\nsquared_error = 0.001\nsamples = 6\nvalue = 0.143", fillcolor="#fbede3"] ;
139 -> 140 ;
141 [label="squared_error = 0.0\nsamples = 1\nvalue = 0.113", fillcolor="#fcf1e9"] ;
140 -> 141 ;
142 [label="km_driven <= 0.038\nsquared_error = 0.001\nsamples = 5\nvalue = 0.149", fillcolor="#fbece1"] ;
140 -> 142 ;
143 [label="km_driven <= 0.034\nsquared_error = 0.001\nsamples = 4\nvalue = 0.139", fillcolor="#fbede3"] ;
142 -> 143 ;
144 [label="km_driven <= 0.026\nsquared_error = 0.0\nsamples = 3\nvalue = 0.153", fillcolor="#fbece1"] ;
143 -> 144 ;
145 [label="squared_error = 0.0\nsamples = 1\nvalue = 0.14", fillcolor="#fbede3"] ;
144 -> 145 ;
146 [label="km_driven <= 0.029\nsquared_error = 0.0\nsamples = 2\nvalue = 0.16", fillcolor="#fbebdf"] ;
144 -> 146 ;
147 [label="squared_error = 0.0\nsamples = 1\nvalue = 0.162", fillcolor="#fbebdf"] ;
146 -> 147 ;
148 [label="squared_error = 0.0\nsamples = 1\nvalue = 0.157", fillcolor="#fbebe0"] ;
146 -> 148 ;
149 [label="squared_error = 0.0\nsamples = 1\nvalue = 0.097", fillcolor="#fcf3ec"] ;
143 -> 149 ;
150 [label="squared_error = -0.0\nsamples = 1\nvalue = 0.19", fillcolor="#fae7d9"] ;
142 -> 150 ;
151 [label="km_driven <= 0.025\nsquared_error = 0.002\nsamples = 9\nvalue = 0.098", fillcolor="#fcf3ec"] ;
139 -> 151 ;
152 [label="squared_error = 0.0\nsamples = 1\nvalue = 0.173", fillcolor="#fbe9dd"] ;
151 -> 152 ;
153 [label="name <= 28.0\nsquared_error = 0.001\nsamples = 8\nvalue = 0.089", fillcolor="#fdf4ed"] ;
151 -> 153 ;
154 [label="name <= 26.5\nsquared_error = 0.0\nsamples = 5\nvalue = 0.076", fillcolor="#fdf5f0"] ;
153 -> 154 ;
155 [label="squared_error = 0.0\nsamples = 2\nvalue = 0.097", fillcolor="#fcf3ec"] ;
154 -> 155 ;
156 [label="km_driven <= 0.037\nsquared_error = 0.0\nsamples = 3\nvalue = 0.063", fillcolor="#fdf7f3"] ;
154 -> 156 ;
157 [label="squared_error = 0.0\nsamples = 1\nvalue = 0.063", fillcolor="#fdf7f2"] ;
156 -> 157 ;
158 [label="squared_error = 0.0\nsamples = 2\nvalue = 0.062", fillcolor="#fdf7f3"] ;
156 -> 158 ;
159 [label="name <= 29.5\nsquared_error = 0.003\nsamples = 3\nvalue = 0.11", fillcolor="#fcf1e9"] ;
153 -> 159 ;
160 [label="squared_error = 0.0\nsamples = 1\nvalue = 0.18", fillcolor="#fae8db"] ;
159 -> 160 ;
161 [label="km_driven <= 0.037\nsquared_error = 0.0\nsamples = 2\nvalue = 0.075", fillcolor="#fdf6f0"] ;
159 -> 161 ;
162 [label="squared_error = 0.0\nsamples = 1\nvalue = 0.062", fillcolor="#fdf7f3"] ;
161 -> 162 ;
163 [label="squared_error = 0.0\nsamples = 1\nvalue = 0.087", fillcolor="#fdf4ee"] ;
161 -> 163 ;
164 [label="name <= 16.5\nsquared_error = 0.0\nsamples = 6\nvalue = 0.152", fillcolor="#fbece1"] ;
126 -> 164 ;
165 [label="squared_error = 0.0\nsamples = 1\nvalue = 0.127", fillcolor="#fcefe6"] ;
164 -> 165 ;
166 [label="km_driven <= 0.028\nsquared_error = 0.0\nsamples = 5\nvalue = 0.157", fillcolor="#fbebe0"] ;
164 -> 166 ;
167 [label="squared_error = 0.0\nsamples = 2\nvalue = 0.15", fillcolor="#fbece1"] ;
166 -> 167 ;
168 [label="squared_error = -0.0\nsamples = 3\nvalue = 0.162", fillcolor="#fbebdf"] ;
166 -> 168 ;
169 [label="name <= 23.5\nsquared_error = 0.01\nsamples = 65\nvalue = 0.283", fillcolor="#f8dbc7"] ;
117 -> 169 ;
170 [label="name <= 20.5\nsquared_error = 0.008\nsamples = 53\nvalue = 0.307", fillcolor="#f7d8c2"] ;
169 -> 170 ;
171 [label="name <= 16.5\nsquared_error = 0.003\nsamples = 47\nvalue = 0.287", fillcolor="#f8dbc6"] ;
170 -> 171 ;
172 [label="km_driven <= 0.011\nsquared_error = 0.001\nsamples = 45\nvalue = 0.297", fillcolor="#f7dac4"] ;
171 -> 172 ;
173 [label="squared_error = 0.0\nsamples = 18\nvalue = 0.265", fillcolor="#f8decb"] ;
172 -> 173 ;
174 [label="squared_error = 0.0\nsamples = 27\nvalue = 0.318", fillcolor="#f7d7c0"] ;
172 -> 174 ;
175 [label="km_driven <= 0.009\nsquared_error = 0.0\nsamples = 2\nvalue = 0.08", fillcolor="#fdf5ef"] ;
171 -> 175 ;
176 [label="squared_error = 0.0\nsamples = 1\nvalue = 0.076", fillcolor="#fdf5f0"] ;
175 -> 176 ;
177 [label="squared_error = 0.0\nsamples = 1\nvalue = 0.085", fillcolor="#fdf4ee"] ;
175 -> 177 ;
178 [label="km_driven <= 0.012\nsquared_error = 0.021\nsamples = 6\nvalue = 0.463", fillcolor="#f3c5a3"] ;
170 -> 178 ;
179 [label="year <= 2017.5\nsquared_error = 0.008\nsamples = 3\nvalue = 0.331", fillcolor="#f6d5bd"] ;
178 -> 179 ;
180 [label="squared_error = -0.0\nsamples = 2\nvalue = 0.268", fillcolor="#f8ddca"] ;
179 -> 180 ;
181 [label="squared_error = 0.0\nsamples = 1\nvalue = 0.458", fillcolor="#f3c5a4"] ;
179 -> 181 ;
182 [label="km_driven <= 0.017\nsquared_error = 0.0\nsamples = 3\nvalue = 0.594", fillcolor="#f0b489"] ;
178 -> 182 ;
183 [label="squared_error = 0.0\nsamples = 2\nvalue = 0.599", fillcolor="#efb488"] ;
182 -> 183 ;
184 [label="squared_error = -0.0\nsamples = 1\nvalue = 0.584", fillcolor="#f0b58b"] ;
182 -> 184 ;
185 [label="km_driven <= 0.042\nsquared_error = 0.006\nsamples = 12\nvalue = 0.174", fillcolor="#fae9dc"] ;
169 -> 185 ;
186 [label="owner <= 1.0\nsquared_error = 0.005\nsamples = 11\nvalue = 0.164", fillcolor="#fbeadf"] ;
185 -> 186 ;
187 [label="km_driven <= 0.008\nsquared_error = 0.005\nsamples = 10\nvalue = 0.153", fillcolor="#fbece1"] ;
186 -> 187 ;
188 [label="name <= 27.5\nsquared_error = 0.005\nsamples = 5\nvalue = 0.193", fillcolor="#fae7d9"] ;
187 -> 188 ;
189 [label="squared_error = 0.0\nsamples = 1\nvalue = 0.323", fillcolor="#f7d6bf"] ;
188 -> 189 ;
190 [label="km_driven <= 0.005\nsquared_error = 0.001\nsamples = 4\nvalue = 0.161", fillcolor="#fbebdf"] ;
188 -> 190 ;
191 [label="squared_error = 0.0\nsamples = 1\nvalue = 0.1", fillcolor="#fcf2eb"] ;
190 -> 191 ;
192 [label="km_driven <= 0.008\nsquared_error = 0.0\nsamples = 3\nvalue = 0.181", fillcolor="#fae8db"] ;
190 -> 192 ;
193 [label="squared_error = -0.0\nsamples = 2\nvalue = 0.183", fillcolor="#fae8db"] ;
192 -> 193 ;
194 [label="squared_error = 0.0\nsamples = 1\nvalue = 0.178", fillcolor="#fae9dc"] ;
192 -> 194 ;
195 [label="km_driven <= 0.018\nsquared_error = 0.001\nsamples = 5\nvalue = 0.113", fillcolor="#fcf1e9"] ;
187 -> 195 ;
196 [label="name <= 26.5\nsquared_error = 0.0\nsamples = 2\nvalue = 0.078", fillcolor="#fdf5f0"] ;
195 -> 196 ;
197 [label="squared_error = 0.0\nsamples = 1\nvalue = 0.072", fillcolor="#fdf6f1"] ;
196 -> 197 ;
198 [label="squared_error = 0.0\nsamples = 1\nvalue = 0.083", fillcolor="#fdf5ef"] ;
196 -> 198 ;
199 [label="name <= 28.5\nsquared_error = 0.0\nsamples = 3\nvalue = 0.136", fillcolor="#fbeee4"] ;
195 -> 199 ;
200 [label="squared_error = 0.0\nsamples = 1\nvalue = 0.127", fillcolor="#fcefe6"] ;
199 -> 200 ;
201 [label="km_driven <= 0.033\nsquared_error = 0.0\nsamples = 2\nvalue = 0.14", fillcolor="#fbede3"] ;
199 -> 201 ;
202 [label="squared_error = 0.0\nsamples = 1\nvalue = 0.144", fillcolor="#fbede3"] ;
201 -> 202 ;
203 [label="squared_error = -0.0\nsamples = 1\nvalue = 0.136", fillcolor="#fbeee4"] ;
201 -> 203 ;
204 [label="squared_error = 0.0\nsamples = 1\nvalue = 0.273", fillcolor="#f8ddc9"] ;
186 -> 204 ;
205 [label="squared_error = -0.0\nsamples = 1\nvalue = 0.292", fillcolor="#f7dac5"] ;
185 -> 205 ;
206 [label="year <= 2016.5\nsquared_error = 0.003\nsamples = 98\nvalue = 0.077", fillcolor="#fdf5f0"] ;
116 -> 206 ;
207 [label="km_driven <= 0.031\nsquared_error = 0.001\nsamples = 43\nvalue = 0.061", fillcolor="#fdf7f3"] ;
206 -> 207 ;
208 [label="year <= 2011.5\nsquared_error = 0.001\nsamples = 42\nvalue = 0.059", fillcolor="#fdf8f3"] ;
207 -> 208 ;
209 [label="name <= 16.0\nsquared_error = 0.0\nsamples = 4\nvalue = 0.032", fillcolor="#fefbf9"] ;
208 -> 209 ;
210 [label="year <= 2010.5\nsquared_error = 0.0\nsamples = 2\nvalue = 0.024", fillcolor="#fefcfa"] ;
209 -> 210 ;
211 [label="squared_error = 0.0\nsamples = 1\nvalue = 0.023", fillcolor="#fefcfa"] ;
210 -> 211 ;
212 [label="squared_error = -0.0\nsamples = 1\nvalue = 0.024", fillcolor="#fefcfa"] ;
210 -> 212 ;
213 [label="km_driven <= 0.024\nsquared_error = 0.0\nsamples = 2\nvalue = 0.04", fillcolor="#fefaf7"] ;
209 -> 213 ;
214 [label="squared_error = 0.0\nsamples = 1\nvalue = 0.037", fillcolor="#fefaf8"] ;
213 -> 214 ;
215 [label="squared_error = 0.0\nsamples = 1\nvalue = 0.042", fillcolor="#fefaf7"] ;
213 -> 215 ;
216 [label="km_driven <= 0.022\nsquared_error = 0.001\nsamples = 38\nvalue = 0.062", fillcolor="#fdf7f3"] ;
208 -> 216 ;
217 [label="km_driven <= 0.016\nsquared_error = 0.001\nsamples = 30\nvalue = 0.065", fillcolor="#fdf7f2"] ;
216 -> 217 ;
218 [label="km_driven <= 0.004\nsquared_error = 0.0\nsamples = 26\nvalue = 0.06", fillcolor="#fdf7f3"] ;
217 -> 218 ;
219 [label="squared_error = 0.0\nsamples = 1\nvalue = 0.041", fillcolor="#fefaf7"] ;
218 -> 219 ;
220 [label="name <= 29.5\nsquared_error = 0.0\nsamples = 25\nvalue = 0.06", fillcolor="#fdf7f3"] ;
218 -> 220 ;
221 [label="km_driven <= 0.007\nsquared_error = 0.0\nsamples = 22\nvalue = 0.061", fillcolor="#fdf7f3"] ;
220 -> 221 ;
222 [label="squared_error = 0.0\nsamples = 20\nvalue = 0.062", fillcolor="#fdf7f3"] ;
221 -> 222 ;
223 [label="year <= 2014.5\nsquared_error = 0.0\nsamples = 2\nvalue = 0.058", fillcolor="#fdf8f3"] ;
221 -> 223 ;
224 [label="squared_error = 0.0\nsamples = 1\nvalue = 0.06", fillcolor="#fdf7f3"] ;
223 -> 224 ;
225 [label="squared_error = 0.0\nsamples = 1\nvalue = 0.057", fillcolor="#fef8f4"] ;
223 -> 225 ;
226 [label="owner <= 1.0\nsquared_error = 0.0\nsamples = 3\nvalue = 0.054", fillcolor="#fef8f4"] ;
220 -> 226 ;
227 [label="km_driven <= 0.011\nsquared_error = 0.0\nsamples = 2\nvalue = 0.055", fillcolor="#fef8f4"] ;
226 -> 227 ;
228 [label="squared_error = 0.0\nsamples = 1\nvalue = 0.055", fillcolor="#fef8f4"] ;
227 -> 228 ;
229 [label="squared_error = 0.0\nsamples = 1\nvalue = 0.055", fillcolor="#fef8f4"] ;
227 -> 229 ;
230 [label="squared_error = -0.0\nsamples = 1\nvalue = 0.052", fillcolor="#fef8f5"] ;
226 -> 230 ;
231 [label="name <= 20.0\nsquared_error = 0.003\nsamples = 4\nvalue = 0.1", fillcolor="#fcf2eb"] ;
217 -> 231 ;
232 [label="name <= 10.5\nsquared_error = 0.0\nsamples = 3\nvalue = 0.071", fillcolor="#fdf6f1"] ;
231 -> 232 ;
233 [label="year <= 2012.5\nsquared_error = 0.0\nsamples = 2\nvalue = 0.064", fillcolor="#fdf7f2"] ;
232 -> 233 ;
234 [label="squared_error = 0.0\nsamples = 1\nvalue = 0.072", fillcolor="#fdf6f1"] ;
233 -> 234 ;
235 [label="squared_error = 0.0\nsamples = 1\nvalue = 0.055", fillcolor="#fef8f4"] ;
233 -> 235 ;
236 [label="squared_error = -0.0\nsamples = 1\nvalue = 0.086", fillcolor="#fdf4ee"] ;
232 -> 236 ;
237 [label="squared_error = 0.0\nsamples = 1\nvalue = 0.188", fillcolor="#fae7da"] ;
231 -> 237 ;
238 [label="km_driven <= 0.027\nsquared_error = 0.0\nsamples = 8\nvalue = 0.05", fillcolor="#fef9f5"] ;
216 -> 238 ;
239 [label="year <= 2014.0\nsquared_error = 0.0\nsamples = 5\nvalue = 0.043", fillcolor="#fefaf6"] ;
238 -> 239 ;
240 [label="squared_error = 0.0\nsamples = 1\nvalue = 0.042", fillcolor="#fefaf7"] ;
239 -> 240 ;
241 [label="squared_error = -0.0\nsamples = 4\nvalue = 0.044", fillcolor="#fefaf6"] ;
239 -> 241 ;
242 [label="year <= 2015.5\nsquared_error = 0.0\nsamples = 3\nvalue = 0.062", fillcolor="#fdf7f3"] ;
238 -> 242 ;
243 [label="name <= 10.0\nsquared_error = 0.0\nsamples = 2\nvalue = 0.066", fillcolor="#fdf7f2"] ;
242 -> 243 ;
244 [label="squared_error = 0.0\nsamples = 1\nvalue = 0.065", fillcolor="#fdf7f2"] ;
243 -> 244 ;
245 [label="squared_error = 0.0\nsamples = 1\nvalue = 0.066", fillcolor="#fdf7f2"] ;
243 -> 245 ;
246 [label="squared_error = 0.0\nsamples = 1\nvalue = 0.054", fillcolor="#fef8f4"] ;
242 -> 246 ;
247 [label="squared_error = 0.0\nsamples = 1\nvalue = 0.132", fillcolor="#fceee5"] ;
207 -> 247 ;
248 [label="name <= 20.5\nsquared_error = 0.004\nsamples = 55\nvalue = 0.09", fillcolor="#fdf4ed"] ;
206 -> 248 ;
249 [label="name <= 15.5\nsquared_error = 0.001\nsamples = 43\nvalue = 0.069", fillcolor="#fdf6f1"] ;
248 -> 249 ;
250 [label="km_driven <= 0.02\nsquared_error = 0.002\nsamples = 9\nvalue = 0.112", fillcolor="#fcf1e9"] ;
249 -> 250 ;
251 [label="km_driven <= 0.018\nsquared_error = 0.0\nsamples = 5\nvalue = 0.078", fillcolor="#fdf5ef"] ;
250 -> 251 ;
252 [label="km_driven <= 0.014\nsquared_error = 0.0\nsamples = 4\nvalue = 0.084", fillcolor="#fdf4ee"] ;
251 -> 252 ;
253 [label="km_driven <= 0.01\nsquared_error = 0.0\nsamples = 3\nvalue = 0.087", fillcolor="#fdf4ee"] ;
252 -> 253 ;
254 [label="squared_error = 0.0\nsamples = 2\nvalue = 0.087", fillcolor="#fdf4ee"] ;
253 -> 254 ;
255 [label="squared_error = -0.0\nsamples = 1\nvalue = 0.086", fillcolor="#fdf4ee"] ;
253 -> 255 ;
256 [label="squared_error = -0.0\nsamples = 1\nvalue = 0.077", fillcolor="#fdf5f0"] ;
252 -> 256 ;
257 [label="squared_error = 0.0\nsamples = 1\nvalue = 0.054", fillcolor="#fef8f4"] ;
251 -> 257 ;
258 [label="km_driven <= 0.026\nsquared_error = 0.001\nsamples = 4\nvalue = 0.154", fillcolor="#fbece1"] ;
250 -> 258 ;
259 [label="km_driven <= 0.023\nsquared_error = 0.0\nsamples = 2\nvalue = 0.171", fillcolor="#fbe9dd"] ;
258 -> 259 ;
260 [label="squared_error = 0.0\nsamples = 1\nvalue = 0.162", fillcolor="#fbebdf"] ;
259 -> 260 ;
261 [label="squared_error = 0.0\nsamples = 1\nvalue = 0.18", fillcolor="#fae8db"] ;
259 -> 261 ;
262 [label="km_driven <= 0.029\nsquared_error = 0.001\nsamples = 2\nvalue = 0.136", fillcolor="#fbeee4"] ;
258 -> 262 ;
263 [label="squared_error = 0.0\nsamples = 1\nvalue = 0.1", fillcolor="#fcf2eb"] ;
262 -> 263 ;
264 [label="squared_error = -0.0\nsamples = 1\nvalue = 0.173", fillcolor="#fbe9dd"] ;
262 -> 264 ;
265 [label="km_driven <= 0.01\nsquared_error = 0.0\nsamples = 34\nvalue = 0.058", fillcolor="#fef8f4"] ;
249 -> 265 ;
266 [label="km_driven <= 0.005\nsquared_error = 0.0\nsamples = 4\nvalue = 0.063", fillcolor="#fdf7f2"] ;
265 -> 266 ;
267 [label="squared_error = 0.0\nsamples = 1\nvalue = 0.052", fillcolor="#fef8f5"] ;
266 -> 267 ;
268 [label="km_driven <= 0.007\nsquared_error = 0.0\nsamples = 3\nvalue = 0.067", fillcolor="#fdf7f2"] ;
266 -> 268 ;
269 [label="squared_error = 0.0\nsamples = 1\nvalue = 0.063", fillcolor="#fdf7f3"] ;
268 -> 269 ;
270 [label="km_driven <= 0.009\nsquared_error = 0.0\nsamples = 2\nvalue = 0.07", fillcolor="#fdf6f1"] ;
268 -> 270 ;
271 [label="squared_error = 0.0\nsamples = 1\nvalue = 0.075", fillcolor="#fdf6f0"] ;
270 -> 271 ;
272 [label="squared_error = 0.0\nsamples = 1\nvalue = 0.065", fillcolor="#fdf7f2"] ;
270 -> 272 ;
273 [label="km_driven <= 0.017\nsquared_error = 0.0\nsamples = 30\nvalue = 0.057", fillcolor="#fef8f4"] ;
265 -> 273 ;
274 [label="year <= 2017.5\nsquared_error = 0.0\nsamples = 2\nvalue = 0.049", fillcolor="#fef9f5"] ;
273 -> 274 ;
275 [label="squared_error = 0.0\nsamples = 1\nvalue = 0.057", fillcolor="#fef8f4"] ;
274 -> 275 ;
276 [label="squared_error = -0.0\nsamples = 1\nvalue = 0.042", fillcolor="#fefaf7"] ;
274 -> 276 ;
277 [label="km_driven <= 0.023\nsquared_error = 0.0\nsamples = 28\nvalue = 0.057", fillcolor="#fef8f4"] ;
273 -> 277 ;
278 [label="squared_error = 0.0\nsamples = 1\nvalue = 0.072", fillcolor="#fdf6f1"] ;
277 -> 278 ;
279 [label="km_driven <= 0.026\nsquared_error = 0.0\nsamples = 27\nvalue = 0.057", fillcolor="#fef8f4"] ;
277 -> 279 ;
280 [label="squared_error = 0.0\nsamples = 1\nvalue = 0.046", fillcolor="#fef9f6"] ;
279 -> 280 ;
281 [label="squared_error = 0.0\nsamples = 26\nvalue = 0.057", fillcolor="#fef8f4"] ;
279 -> 281 ;
282 [label="name <= 23.5\nsquared_error = 0.007\nsamples = 12\nvalue = 0.166", fillcolor="#fbeade"] ;
248 -> 282 ;
283 [label="year <= 2017.5\nsquared_error = 0.0\nsamples = 4\nvalue = 0.26", fillcolor="#f8decb"] ;
282 -> 283 ;
284 [label="squared_error = 0.0\nsamples = 2\nvalue = 0.268", fillcolor="#f8ddca"] ;
283 -> 284 ;
285 [label="squared_error = -0.0\nsamples = 2\nvalue = 0.253", fillcolor="#f8dfcd"] ;
283 -> 285 ;
286 [label="km_driven <= 0.022\nsquared_error = 0.004\nsamples = 8\nvalue = 0.118", fillcolor="#fcf0e8"] ;
282 -> 286 ;
287 [label="km_driven <= 0.013\nsquared_error = 0.003\nsamples = 7\nvalue = 0.132", fillcolor="#fceee5"] ;
286 -> 287 ;
288 [label="name <= 28.5\nsquared_error = 0.002\nsamples = 4\nvalue = 0.1", fillcolor="#fcf2eb"] ;
287 -> 288 ;
289 [label="name <= 27.0\nsquared_error = 0.0\nsamples = 2\nvalue = 0.05", fillcolor="#fef9f5"] ;
288 -> 289 ;
290 [label="squared_error = 0.0\nsamples = 1\nvalue = 0.051", fillcolor="#fef9f5"] ;
289 -> 290 ;
291 [label="squared_error = 0.0\nsamples = 1\nvalue = 0.05", fillcolor="#fef9f5"] ;
289 -> 291 ;
292 [label="year <= 2017.5\nsquared_error = 0.0\nsamples = 2\nvalue = 0.149", fillcolor="#fbece1"] ;
288 -> 292 ;
293 [label="squared_error = 0.0\nsamples = 1\nvalue = 0.142", fillcolor="#fbede3"] ;
292 -> 293 ;
294 [label="squared_error = 0.0\nsamples = 1\nvalue = 0.156", fillcolor="#fbebe0"] ;
292 -> 294 ;
295 [label="year <= 2017.5\nsquared_error = 0.0\nsamples = 3\nvalue = 0.175", fillcolor="#fae9dc"] ;
287 -> 295 ;
296 [label="squared_error = 0.0\nsamples = 1\nvalue = 0.157", fillcolor="#fbebe0"] ;
295 -> 296 ;
297 [label="squared_error = -0.0\nsamples = 2\nvalue = 0.184", fillcolor="#fae8db"] ;
295 -> 297 ;
298 [label="squared_error = 0.0\nsamples = 1\nvalue = 0.022", fillcolor="#fefcfb"] ;
286 -> 298 ;
299 [label="km_driven <= 0.006\nsquared_error = 0.031\nsamples = 49\nvalue = 0.389", fillcolor="#f5ceb2"] ;
115 -> 299 ;
300 [label="fuel <= 2.0\nsquared_error = 0.004\nsamples = 12\nvalue = 0.134", fillcolor="#fceee4"] ;
299 -> 300 ;
301 [label="km_driven <= 0.003\nsquared_error = 0.001\nsamples = 4\nvalue = 0.206", fillcolor="#fae5d6"] ;
300 -> 301 ;
302 [label="km_driven <= 0.001\nsquared_error = 0.0\nsamples = 3\nvalue = 0.189", fillcolor="#fae7da"] ;
301 -> 302 ;
303 [label="squared_error = 0.0\nsamples = 1\nvalue = 0.193", fillcolor="#fae7d9"] ;
302 -> 303 ;
304 [label="squared_error = 0.0\nsamples = 2\nvalue = 0.188", fillcolor="#fae7da"] ;
302 -> 304 ;
305 [label="squared_error = -0.0\nsamples = 1\nvalue = 0.258", fillcolor="#f8dfcc"] ;
301 -> 305 ;
306 [label="km_driven <= 0.001\nsquared_error = 0.002\nsamples = 8\nvalue = 0.098", fillcolor="#fcf3ec"] ;
300 -> 306 ;
307 [label="squared_error = 0.0\nsamples = 1\nvalue = 0.188", fillcolor="#fae7da"] ;
306 -> 307 ;
308 [label="km_driven <= 0.001\nsquared_error = 0.001\nsamples = 7\nvalue = 0.085", fillcolor="#fdf4ee"] ;
306 -> 308 ;
309 [label="squared_error = 0.0\nsamples = 2\nvalue = 0.11", fillcolor="#fcf1e9"] ;
308 -> 309 ;
310 [label="km_driven <= 0.004\nsquared_error = 0.0\nsamples = 5\nvalue = 0.075", fillcolor="#fdf5f0"] ;
308 -> 310 ;
311 [label="km_driven <= 0.002\nsquared_error = 0.0\nsamples = 2\nvalue = 0.052", fillcolor="#fef8f5"] ;
310 -> 311 ;
312 [label="squared_error = 0.0\nsamples = 1\nvalue = 0.06", fillcolor="#fdf7f3"] ;
311 -> 312 ;
313 [label="squared_error = 0.0\nsamples = 1\nvalue = 0.044", fillcolor="#fef9f6"] ;
311 -> 313 ;
314 [label="km_driven <= 0.005\nsquared_error = 0.0\nsamples = 3\nvalue = 0.091", fillcolor="#fdf4ed"] ;
310 -> 314 ;
315 [label="squared_error = 0.0\nsamples = 2\nvalue = 0.087", fillcolor="#fdf4ee"] ;
314 -> 315 ;
316 [label="squared_error = 0.0\nsamples = 1\nvalue = 0.1", fillcolor="#fcf2eb"] ;
314 -> 316 ;
317 [label="km_driven <= 0.009\nsquared_error = 0.012\nsamples = 37\nvalue = 0.472", fillcolor="#f3c3a1"] ;
299 -> 317 ;
318 [label="name <= 17.5\nsquared_error = 0.003\nsamples = 34\nvalue = 0.5", fillcolor="#f2c09c"] ;
317 -> 318 ;
319 [label="name <= 16.5\nsquared_error = 0.0\nsamples = 31\nvalue = 0.509", fillcolor="#f2bf9a"] ;
318 -> 319 ;
320 [label="squared_error = 0.0\nsamples = 2\nvalue = 0.448", fillcolor="#f3c7a6"] ;
319 -> 320 ;
321 [label="squared_error = -0.0\nsamples = 29\nvalue = 0.514", fillcolor="#f2be99"] ;
319 -> 321 ;
322 [label="km_driven <= 0.007\nsquared_error = 0.027\nsamples = 3\nvalue = 0.403", fillcolor="#f5ccaf"] ;
318 -> 322 ;
323 [label="squared_error = 0.0\nsamples = 2\nvalue = 0.519", fillcolor="#f2be98"] ;
322 -> 323 ;
324 [label="squared_error = -0.0\nsamples = 1\nvalue = 0.173", fillcolor="#fbe9dd"] ;
322 -> 324 ;
325 [label="km_driven <= 0.013\nsquared_error = 0.001\nsamples = 3\nvalue = 0.158", fillcolor="#fbebe0"] ;
317 -> 325 ;
326 [label="squared_error = 0.0\nsamples = 2\nvalue = 0.142", fillcolor="#fbede3"] ;
325 -> 326 ;
327 [label="squared_error = 0.0\nsamples = 1\nvalue = 0.19", fillcolor="#fae7d9"] ;
325 -> 327 ;
328 [label="name <= 28.5\nsquared_error = 0.006\nsamples = 407\nvalue = 0.095", fillcolor="#fdf3ec"] ;
114 -> 328 ;
329 [label="fuel <= 2.0\nsquared_error = 0.005\nsamples = 339\nvalue = 0.081", fillcolor="#fdf5ef"] ;
328 -> 329 ;
330 [label="km_driven <= 0.022\nsquared_error = 0.007\nsamples = 108\nvalue = 0.119", fillcolor="#fcf0e8"] ;
329 -> 330 ;
331 [label="name <= 9.5\nsquared_error = 0.009\nsamples = 50\nvalue = 0.149", fillcolor="#fbece1"] ;
330 -> 331 ;
332 [label="km_driven <= 0.01\nsquared_error = 0.0\nsamples = 3\nvalue = 0.321", fillcolor="#f7d7bf"] ;
331 -> 332 ;
333 [label="squared_error = 0.0\nsamples = 2\nvalue = 0.323", fillcolor="#f7d6bf"] ;
332 -> 333 ;
334 [label="squared_error = -0.0\nsamples = 1\nvalue = 0.318", fillcolor="#f7d7c0"] ;
332 -> 334 ;
335 [label="name <= 20.5\nsquared_error = 0.008\nsamples = 47\nvalue = 0.138", fillcolor="#fbeee4"] ;
331 -> 335 ;
336 [label="name <= 16.0\nsquared_error = 0.004\nsamples = 33\nvalue = 0.111", fillcolor="#fcf1e9"] ;
335 -> 336 ;
337 [label="name <= 11.5\nsquared_error = 0.007\nsamples = 11\nvalue = 0.164", fillcolor="#fbeadf"] ;
336 -> 337 ;
338 [label="name <= 10.5\nsquared_error = 0.0\nsamples = 6\nvalue = 0.101", fillcolor="#fcf2eb"] ;
337 -> 338 ;
339 [label="squared_error = 0.0\nsamples = 1\nvalue = 0.067", fillcolor="#fdf7f2"] ;
338 -> 339 ;
340 [label="km_driven <= 0.01\nsquared_error = 0.0\nsamples = 5\nvalue = 0.107", fillcolor="#fcf1ea"] ;
338 -> 340 ;
341 [label="squared_error = 0.0\nsamples = 1\nvalue = 0.117", fillcolor="#fcf0e8"] ;
340 -> 341 ;
342 [label="km_driven <= 0.015\nsquared_error = 0.0\nsamples = 4\nvalue = 0.105", fillcolor="#fcf2ea"] ;
340 -> 342 ;
343 [label="squared_error = 0.0\nsamples = 2\nvalue = 0.097", fillcolor="#fcf3ec"] ;
342 -> 343 ;
344 [label="year <= 2017.5\nsquared_error = 0.0\nsamples = 2\nvalue = 0.112", fillcolor="#fcf1e9"] ;
342 -> 344 ;
345 [label="squared_error = 0.0\nsamples = 1\nvalue = 0.112", fillcolor="#fcf1e9"] ;
344 -> 345 ;
346 [label="squared_error = 0.0\nsamples = 1\nvalue = 0.112", fillcolor="#fcf1e9"] ;
344 -> 346 ;
347 [label="km_driven <= 0.018\nsquared_error = 0.004\nsamples = 5\nvalue = 0.24", fillcolor="#f9e1d0"] ;
337 -> 347 ;
348 [label="year <= 2017.5\nsquared_error = 0.004\nsamples = 3\nvalue = 0.268", fillcolor="#f8ddca"] ;
347 -> 348 ;
349 [label="squared_error = 0.0\nsamples = 1\nvalue = 0.348", fillcolor="#f6d3ba"] ;
348 -> 349 ;
350 [label="km_driven <= 0.008\nsquared_error = 0.002\nsamples = 2\nvalue = 0.228", fillcolor="#f9e2d2"] ;
348 -> 350 ;
351 [label="squared_error = 0.0\nsamples = 1\nvalue = 0.268", fillcolor="#f8ddca"] ;
350 -> 351 ;
352 [label="squared_error = -0.0\nsamples = 1\nvalue = 0.188", fillcolor="#fae7da"] ;
350 -> 352 ;
353 [label="squared_error = 0.0\nsamples = 2\nvalue = 0.198", fillcolor="#fae6d8"] ;
347 -> 353 ;
354 [label="name <= 19.5\nsquared_error = 0.0\nsamples = 22\nvalue = 0.085", fillcolor="#fdf4ee"] ;
336 -> 354 ;
355 [label="owner <= 1.0\nsquared_error = 0.001\nsamples = 9\nvalue = 0.093", fillcolor="#fdf3ed"] ;
354 -> 355 ;
356 [label="year <= 2015.5\nsquared_error = 0.001\nsamples = 8\nvalue = 0.09", fillcolor="#fdf4ed"] ;
355 -> 356 ;
357 [label="year <= 2014.0\nsquared_error = 0.0\nsamples = 3\nvalue = 0.08", fillcolor="#fdf5ef"] ;
356 -> 357 ;
358 [label="squared_error = 0.0\nsamples = 1\nvalue = 0.097", fillcolor="#fcf3ec"] ;
357 -> 358 ;
359 [label="km_driven <= 0.018\nsquared_error = 0.0\nsamples = 2\nvalue = 0.071", fillcolor="#fdf6f1"] ;
357 -> 359 ;
360 [label="squared_error = 0.0\nsamples = 1\nvalue = 0.067", fillcolor="#fdf7f2"] ;
359 -> 360 ;
361 [label="squared_error = 0.0\nsamples = 1\nvalue = 0.075", fillcolor="#fdf6f0"] ;
359 -> 361 ;
362 [label="km_driven <= 0.018\nsquared_error = 0.001\nsamples = 5\nvalue = 0.096", fillcolor="#fcf3ec"] ;
356 -> 362 ;
363 [label="squared_error = 0.0\nsamples = 1\nvalue = 0.127", fillcolor="#fcefe6"] ;
362 -> 363 ;
364 [label="km_driven <= 0.02\nsquared_error = 0.001\nsamples = 4\nvalue = 0.089", fillcolor="#fdf4ed"] ;
362 -> 364 ;
365 [label="squared_error = 0.0\nsamples = 1\nvalue = 0.102", fillcolor="#fcf2eb"] ;
364 -> 365 ;
366 [label="year <= 2016.5\nsquared_error = 0.001\nsamples = 3\nvalue = 0.084", fillcolor="#fdf4ee"] ;
364 -> 366 ;
367 [label="squared_error = 0.001\nsamples = 2\nvalue = 0.094", fillcolor="#fdf3ec"] ;
366 -> 367 ;
368 [label="squared_error = 0.0\nsamples = 1\nvalue = 0.063", fillcolor="#fdf7f2"] ;
366 -> 368 ;
369 [label="squared_error = -0.0\nsamples = 1\nvalue = 0.117", fillcolor="#fcf0e8"] ;
355 -> 369 ;
370 [label="year <= 2017.5\nsquared_error = 0.0\nsamples = 13\nvalue = 0.08", fillcolor="#fdf5ef"] ;
354 -> 370 ;
371 [label="km_driven <= 0.011\nsquared_error = 0.0\nsamples = 3\nvalue = 0.065", fillcolor="#fdf7f2"] ;
370 -> 371 ;
372 [label="squared_error = 0.0\nsamples = 1\nvalue = 0.072", fillcolor="#fdf6f1"] ;
371 -> 372 ;
373 [label="year <= 2016.5\nsquared_error = 0.0\nsamples = 2\nvalue = 0.061", fillcolor="#fdf7f3"] ;
371 -> 373 ;
374 [label="squared_error = 0.0\nsamples = 1\nvalue = 0.062", fillcolor="#fdf7f3"] ;
373 -> 374 ;
375 [label="squared_error = 0.0\nsamples = 1\nvalue = 0.06", fillcolor="#fdf7f3"] ;
373 -> 375 ;
376 [label="km_driven <= 0.012\nsquared_error = 0.0\nsamples = 10\nvalue = 0.085", fillcolor="#fdf4ee"] ;
370 -> 376 ;
377 [label="km_driven <= 0.003\nsquared_error = 0.0\nsamples = 5\nvalue = 0.088", fillcolor="#fdf4ee"] ;
376 -> 377 ;
378 [label="year <= 2019.5\nsquared_error = 0.0\nsamples = 3\nvalue = 0.084", fillcolor="#fdf4ee"] ;
377 -> 378 ;
379 [label="km_driven <= 0.003\nsquared_error = 0.0\nsamples = 2\nvalue = 0.081", fillcolor="#fdf5ef"] ;
378 -> 379 ;
380 [label="squared_error = 0.0\nsamples = 1\nvalue = 0.083", fillcolor="#fdf5ef"] ;
379 -> 380 ;
381 [label="squared_error = 0.0\nsamples = 1\nvalue = 0.08", fillcolor="#fdf5ef"] ;
379 -> 381 ;
382 [label="squared_error = 0.0\nsamples = 1\nvalue = 0.09", fillcolor="#fdf4ed"] ;
378 -> 382 ;
383 [label="year <= 2018.5\nsquared_error = 0.0\nsamples = 2\nvalue = 0.094", fillcolor="#fdf3ec"] ;
377 -> 383 ;
384 [label="squared_error = 0.0\nsamples = 1\nvalue = 0.088", fillcolor="#fdf4ed"] ;
383 -> 384 ;
385 [label="squared_error = 0.0\nsamples = 1\nvalue = 0.1", fillcolor="#fcf2eb"] ;
383 -> 385 ;
386 [label="owner <= 1.0\nsquared_error = 0.0\nsamples = 5\nvalue = 0.081", fillcolor="#fdf5ef"] ;
376 -> 386 ;
387 [label="km_driven <= 0.015\nsquared_error = 0.0\nsamples = 4\nvalue = 0.079", fillcolor="#fdf5ef"] ;
386 -> 387 ;
388 [label="year <= 2018.5\nsquared_error = 0.0\nsamples = 2\nvalue = 0.082", fillcolor="#fdf5ef"] ;
387 -> 388 ;
389 [label="squared_error = 0.0\nsamples = 1\nvalue = 0.081", fillcolor="#fdf5ef"] ;
388 -> 389 ;
390 [label="squared_error = -0.0\nsamples = 1\nvalue = 0.083", fillcolor="#fdf5ef"] ;
388 -> 390 ;
391 [label="km_driven <= 0.018\nsquared_error = 0.0\nsamples = 2\nvalue = 0.077", fillcolor="#fdf5f0"] ;
387 -> 391 ;
392 [label="squared_error = 0.0\nsamples = 1\nvalue = 0.071", fillcolor="#fdf6f1"] ;
391 -> 392 ;
393 [label="squared_error = 0.0\nsamples = 1\nvalue = 0.082", fillcolor="#fdf5ef"] ;
391 -> 393 ;
394 [label="squared_error = -0.0\nsamples = 1\nvalue = 0.087", fillcolor="#fdf4ee"] ;
386 -> 394 ;
395 [label="km_driven <= 0.003\nsquared_error = 0.011\nsamples = 14\nvalue = 0.201", fillcolor="#fae6d7"] ;
335 -> 395 ;
396 [label="squared_error = 0.0\nsamples = 1\nvalue = 0.458", fillcolor="#f3c5a4"] ;
395 -> 396 ;
397 [label="name <= 27.5\nsquared_error = 0.007\nsamples = 13\nvalue = 0.182", fillcolor="#fae8db"] ;
395 -> 397 ;
398 [label="year <= 2012.5\nsquared_error = 0.007\nsamples = 9\nvalue = 0.21", fillcolor="#fae4d5"] ;
397 -> 398 ;
399 [label="squared_error = 0.0\nsamples = 1\nvalue = 0.137", fillcolor="#fbeee4"] ;
398 -> 399 ;
400 [label="km_driven <= 0.019\nsquared_error = 0.007\nsamples = 8\nvalue = 0.22", fillcolor="#f9e3d4"] ;
398 -> 400 ;
401 [label="year <= 2017.5\nsquared_error = 0.004\nsamples = 7\nvalue = 0.2", fillcolor="#fae6d7"] ;
400 -> 401 ;
402 [label="name <= 24.0\nsquared_error = 0.004\nsamples = 6\nvalue = 0.187", fillcolor="#fae7da"] ;
401 -> 402 ;
403 [label="year <= 2014.5\nsquared_error = 0.003\nsamples = 5\nvalue = 0.207", fillcolor="#fae5d6"] ;
402 -> 403 ;
404 [label="squared_error = 0.0\nsamples = 1\nvalue = 0.152", fillcolor="#fbece1"] ;
403 -> 404 ;
405 [label="owner <= 1.0\nsquared_error = 0.002\nsamples = 4\nvalue = 0.22", fillcolor="#f9e3d3"] ;
403 -> 405 ;
406 [label="squared_error = 0.0\nsamples = 1\nvalue = 0.298", fillcolor="#f7d9c4"] ;
405 -> 406 ;
407 [label="year <= 2016.5\nsquared_error = 0.0\nsamples = 3\nvalue = 0.195", fillcolor="#fae6d8"] ;
405 -> 407 ;
408 [label="squared_error = 0.0\nsamples = 2\nvalue = 0.183", fillcolor="#fae8db"] ;
407 -> 408 ;
409 [label="squared_error = 0.0\nsamples = 1\nvalue = 0.218", fillcolor="#f9e4d4"] ;
407 -> 409 ;
410 [label="squared_error = 0.0\nsamples = 1\nvalue = 0.087", fillcolor="#fdf4ee"] ;
402 -> 410 ;
411 [label="squared_error = -0.0\nsamples = 1\nvalue = 0.278", fillcolor="#f8dcc8"] ;
401 -> 411 ;
412 [label="squared_error = 0.0\nsamples = 1\nvalue = 0.358", fillcolor="#f6d2b8"] ;
400 -> 412 ;
413 [label="year <= 2017.5\nsquared_error = 0.0\nsamples = 4\nvalue = 0.117", fillcolor="#fcf0e8"] ;
397 -> 413 ;
414 [label="km_driven <= 0.019\nsquared_error = 0.0\nsamples = 2\nvalue = 0.131", fillcolor="#fceee5"] ;
413 -> 414 ;
415 [label="squared_error = 0.0\nsamples = 1\nvalue = 0.127", fillcolor="#fcefe6"] ;
414 -> 415 ;
416 [label="squared_error = -0.0\nsamples = 1\nvalue = 0.135", fillcolor="#fbeee4"] ;
414 -> 416 ;
417 [label="year <= 2018.5\nsquared_error = 0.0\nsamples = 2\nvalue = 0.102", fillcolor="#fcf2eb"] ;
413 -> 417 ;
418 [label="squared_error = 0.0\nsamples = 1\nvalue = 0.092", fillcolor="#fdf3ed"] ;
417 -> 418 ;
419 [label="squared_error = -0.0\nsamples = 1\nvalue = 0.111", fillcolor="#fcf1e9"] ;
417 -> 419 ;
420 [label="name <= 20.5\nsquared_error = 0.003\nsamples = 58\nvalue = 0.092", fillcolor="#fdf3ed"] ;
330 -> 420 ;
421 [label="year <= 2012.5\nsquared_error = 0.002\nsamples = 44\nvalue = 0.082", fillcolor="#fdf5ef"] ;
420 -> 421 ;
422 [label="km_driven <= 0.072\nsquared_error = 0.0\nsamples = 13\nvalue = 0.047", fillcolor="#fef9f6"] ;
421 -> 422 ;
423 [label="km_driven <= 0.038\nsquared_error = 0.0\nsamples = 12\nvalue = 0.05", fillcolor="#fef9f5"] ;
422 -> 423 ;
424 [label="owner <= 1.0\nsquared_error = 0.0\nsamples = 4\nvalue = 0.042", fillcolor="#fefaf7"] ;
423 -> 424 ;
425 [label="squared_error = 0.0\nsamples = 1\nvalue = 0.047", fillcolor="#fef9f6"] ;
424 -> 425 ;
426 [label="km_driven <= 0.036\nsquared_error = 0.0\nsamples = 3\nvalue = 0.041", fillcolor="#fefaf7"] ;
424 -> 426 ;
427 [label="squared_error = 0.0\nsamples = 1\nvalue = 0.04", fillcolor="#fefaf7"] ;
426 -> 427 ;
428 [label="squared_error = -0.0\nsamples = 2\nvalue = 0.041", fillcolor="#fefaf7"] ;
426 -> 428 ;
429 [label="name <= 14.0\nsquared_error = 0.0\nsamples = 8\nvalue = 0.053", fillcolor="#fef8f4"] ;
423 -> 429 ;
430 [label="squared_error = 0.0\nsamples = 1\nvalue = 0.095", fillcolor="#fdf3ec"] ;
429 -> 430 ;
431 [label="km_driven <= 0.064\nsquared_error = 0.0\nsamples = 7\nvalue = 0.047", fillcolor="#fef9f6"] ;
429 -> 431 ;
432 [label="year <= 2009.5\nsquared_error = 0.0\nsamples = 6\nvalue = 0.046", fillcolor="#fef9f6"] ;
431 -> 432 ;
433 [label="squared_error = 0.0\nsamples = 1\nvalue = 0.034", fillcolor="#fefbf8"] ;
432 -> 433 ;
434 [label="km_driven <= 0.04\nsquared_error = 0.0\nsamples = 5\nvalue = 0.048", fillcolor="#fef9f5"] ;
432 -> 434 ;
435 [label="squared_error = 0.0\nsamples = 1\nvalue = 0.042", fillcolor="#fefaf7"] ;
434 -> 435 ;
436 [label="km_driven <= 0.044\nsquared_error = 0.0\nsamples = 4\nvalue = 0.05", fillcolor="#fef9f5"] ;
434 -> 436 ;
437 [label="km_driven <= 0.042\nsquared_error = 0.0\nsamples = 2\nvalue = 0.053", fillcolor="#fef8f5"] ;
436 -> 437 ;
438 [label="squared_error = 0.0\nsamples = 1\nvalue = 0.048", fillcolor="#fef9f5"] ;
437 -> 438 ;
439 [label="squared_error = -0.0\nsamples = 1\nvalue = 0.057", fillcolor="#fef8f4"] ;
437 -> 439 ;
440 [label="owner <= 1.0\nsquared_error = 0.0\nsamples = 2\nvalue = 0.047", fillcolor="#fef9f6"] ;
436 -> 440 ;
441 [label="squared_error = 0.0\nsamples = 1\nvalue = 0.046", fillcolor="#fef9f6"] ;
440 -> 441 ;
442 [label="squared_error = -0.0\nsamples = 1\nvalue = 0.047", fillcolor="#fef9f6"] ;
440 -> 442 ;
443 [label="squared_error = -0.0\nsamples = 1\nvalue = 0.057", fillcolor="#fef8f4"] ;
431 -> 443 ;
444 [label="squared_error = 0.0\nsamples = 1\nvalue = 0.022", fillcolor="#fefcfb"] ;
422 -> 444 ;
445 [label="name <= 10.0\nsquared_error = 0.002\nsamples = 31\nvalue = 0.097", fillcolor="#fcf3ec"] ;
421 -> 445 ;
446 [label="name <= 6.5\nsquared_error = 0.005\nsamples = 6\nvalue = 0.143", fillcolor="#fbede3"] ;
445 -> 446 ;
447 [label="km_driven <= 0.047\nsquared_error = 0.0\nsamples = 2\nvalue = 0.057", fillcolor="#fef8f4"] ;
446 -> 447 ;
448 [label="squared_error = 0.0\nsamples = 1\nvalue = 0.072", fillcolor="#fdf6f1"] ;
447 -> 448 ;
449 [label="squared_error = 0.0\nsamples = 1\nvalue = 0.042", fillcolor="#fefaf7"] ;
447 -> 449 ;
450 [label="owner <= 3.0\nsquared_error = 0.002\nsamples = 4\nvalue = 0.186", fillcolor="#fae8da"] ;
446 -> 450 ;
451 [label="km_driven <= 0.043\nsquared_error = 0.0\nsamples = 3\nvalue = 0.214", fillcolor="#f9e4d5"] ;
450 -> 451 ;
452 [label="squared_error = 0.0\nsamples = 2\nvalue = 0.208", fillcolor="#fae5d6"] ;
451 -> 452 ;
453 [label="squared_error = 0.0\nsamples = 1\nvalue = 0.226", fillcolor="#f9e3d2"] ;
451 -> 453 ;
454 [label="squared_error = -0.0\nsamples = 1\nvalue = 0.105", fillcolor="#fcf2ea"] ;
450 -> 454 ;
455 [label="owner <= 3.0\nsquared_error = 0.001\nsamples = 25\nvalue = 0.085", fillcolor="#fdf4ee"] ;
445 -> 455 ;
456 [label="km_driven <= 0.03\nsquared_error = 0.0\nsamples = 23\nvalue = 0.08", fillcolor="#fdf5ef"] ;
455 -> 456 ;
457 [label="year <= 2014.5\nsquared_error = 0.0\nsamples = 9\nvalue = 0.09", fillcolor="#fdf4ed"] ;
456 -> 457 ;
458 [label="squared_error = 0.0\nsamples = 1\nvalue = 0.06", fillcolor="#fdf7f3"] ;
457 -> 458 ;
459 [label="km_driven <= 0.026\nsquared_error = 0.0\nsamples = 8\nvalue = 0.094", fillcolor="#fdf3ec"] ;
457 -> 459 ;
460 [label="owner <= 1.0\nsquared_error = 0.0\nsamples = 4\nvalue = 0.081", fillcolor="#fdf5ef"] ;
459 -> 460 ;
461 [label="year <= 2016.5\nsquared_error = 0.0\nsamples = 3\nvalue = 0.076", fillcolor="#fdf5f0"] ;
460 -> 461 ;
462 [label="squared_error = 0.0\nsamples = 1\nvalue = 0.095", fillcolor="#fdf3ec"] ;
461 -> 462 ;
463 [label="year <= 2017.5\nsquared_error = 0.0\nsamples = 2\nvalue = 0.066", fillcolor="#fdf7f2"] ;
461 -> 463 ;
464 [label="squared_error = 0.0\nsamples = 1\nvalue = 0.062", fillcolor="#fdf7f3"] ;
463 -> 464 ;
465 [label="squared_error = 0.0\nsamples = 1\nvalue = 0.07", fillcolor="#fdf6f1"] ;
463 -> 465 ;
466 [label="squared_error = 0.0\nsamples = 1\nvalue = 0.097", fillcolor="#fcf3ec"] ;
460 -> 466 ;
467 [label="name <= 15.0\nsquared_error = 0.0\nsamples = 4\nvalue = 0.106", fillcolor="#fcf2ea"] ;
459 -> 467 ;
468 [label="squared_error = 0.0\nsamples = 2\nvalue = 0.107", fillcolor="#fcf1ea"] ;
467 -> 468 ;
469 [label="squared_error = 0.0\nsamples = 2\nvalue = 0.105", fillcolor="#fcf2ea"] ;
467 -> 469 ;
470 [label="km_driven <= 0.06\nsquared_error = 0.0\nsamples = 14\nvalue = 0.074", fillcolor="#fdf6f0"] ;
456 -> 470 ;
471 [label="km_driven <= 0.032\nsquared_error = 0.0\nsamples = 12\nvalue = 0.071", fillcolor="#fdf6f1"] ;
470 -> 471 ;
472 [label="squared_error = 0.0\nsamples = 1\nvalue = 0.05", fillcolor="#fef9f5"] ;
471 -> 472 ;
473 [label="name <= 15.0\nsquared_error = 0.0\nsamples = 11\nvalue = 0.073", fillcolor="#fdf6f1"] ;
471 -> 473 ;
474 [label="km_driven <= 0.051\nsquared_error = 0.0\nsamples = 3\nvalue = 0.08", fillcolor="#fdf5ef"] ;
473 -> 474 ;
475 [label="owner <= 1.0\nsquared_error = 0.0\nsamples = 2\nvalue = 0.085", fillcolor="#fdf4ee"] ;
474 -> 475 ;
476 [label="squared_error = 0.0\nsamples = 1\nvalue = 0.082", fillcolor="#fdf5ef"] ;
475 -> 476 ;
477 [label="squared_error = 0.0\nsamples = 1\nvalue = 0.087", fillcolor="#fdf4ee"] ;
475 -> 477 ;
478 [label="squared_error = 0.0\nsamples = 1\nvalue = 0.071", fillcolor="#fdf6f1"] ;
474 -> 478 ;
479 [label="owner <= 1.0\nsquared_error = 0.0\nsamples = 8\nvalue = 0.07", fillcolor="#fdf6f1"] ;
473 -> 479 ;
480 [label="km_driven <= 0.052\nsquared_error = 0.0\nsamples = 5\nvalue = 0.066", fillcolor="#fdf7f2"] ;
479 -> 480 ;
481 [label="km_driven <= 0.042\nsquared_error = 0.0\nsamples = 4\nvalue = 0.068", fillcolor="#fdf6f2"] ;
480 -> 481 ;
482 [label="year <= 2017.5\nsquared_error = 0.0\nsamples = 3\nvalue = 0.066", fillcolor="#fdf7f2"] ;
481 -> 482 ;
483 [label="squared_error = -0.0\nsamples = 2\nvalue = 0.067", fillcolor="#fdf7f2"] ;
482 -> 483 ;
484 [label="squared_error = 0.0\nsamples = 1\nvalue = 0.064", fillcolor="#fdf7f2"] ;
482 -> 484 ;
485 [label="squared_error = -0.0\nsamples = 1\nvalue = 0.072", fillcolor="#fdf6f1"] ;
481 -> 485 ;
486 [label="squared_error = 0.0\nsamples = 1\nvalue = 0.062", fillcolor="#fdf7f3"] ;
480 -> 486 ;
487 [label="year <= 2015.5\nsquared_error = 0.0\nsamples = 3\nvalue = 0.076", fillcolor="#fdf5f0"] ;
479 -> 487 ;
488 [label="squared_error = 0.0\nsamples = 1\nvalue = 0.087", fillcolor="#fdf4ee"] ;
487 -> 488 ;
489 [label="km_driven <= 0.036\nsquared_error = 0.0\nsamples = 2\nvalue = 0.07", fillcolor="#fdf6f1"] ;
487 -> 489 ;
490 [label="squared_error = 0.0\nsamples = 1\nvalue = 0.082", fillcolor="#fdf5ef"] ;
489 -> 490 ;
491 [label="squared_error = 0.0\nsamples = 1\nvalue = 0.057", fillcolor="#fef8f4"] ;
489 -> 491 ;
492 [label="owner <= 1.0\nsquared_error = 0.0\nsamples = 2\nvalue = 0.092", fillcolor="#fdf3ed"] ;
470 -> 492 ;
493 [label="squared_error = 0.0\nsamples = 1\nvalue = 0.082", fillcolor="#fdf5ef"] ;
492 -> 493 ;
494 [label="squared_error = 0.0\nsamples = 1\nvalue = 0.102", fillcolor="#fcf2eb"] ;
492 -> 494 ;
495 [label="year <= 2014.5\nsquared_error = 0.003\nsamples = 2\nvalue = 0.145", fillcolor="#fbede2"] ;
455 -> 495 ;
496 [label="squared_error = 0.0\nsamples = 1\nvalue = 0.198", fillcolor="#fae6d8"] ;
495 -> 496 ;
497 [label="squared_error = 0.0\nsamples = 1\nvalue = 0.092", fillcolor="#fdf3ed"] ;
495 -> 497 ;
498 [label="year <= 2009.5\nsquared_error = 0.003\nsamples = 14\nvalue = 0.124", fillcolor="#fcefe6"] ;
420 -> 498 ;
499 [label="km_driven <= 0.05\nsquared_error = 0.0\nsamples = 3\nvalue = 0.065", fillcolor="#fdf7f2"] ;
498 -> 499 ;
500 [label="km_driven <= 0.042\nsquared_error = 0.0\nsamples = 2\nvalue = 0.059", fillcolor="#fdf8f3"] ;
499 -> 500 ;
501 [label="squared_error = 0.0\nsamples = 1\nvalue = 0.07", fillcolor="#fdf6f1"] ;
500 -> 501 ;
502 [label="squared_error = 0.0\nsamples = 1\nvalue = 0.049", fillcolor="#fef9f5"] ;
500 -> 502 ;
503 [label="squared_error = 0.0\nsamples = 1\nvalue = 0.077", fillcolor="#fdf5f0"] ;
499 -> 503 ;
504 [label="name <= 22.0\nsquared_error = 0.003\nsamples = 11\nvalue = 0.14", fillcolor="#fbede3"] ;
498 -> 504 ;
505 [label="year <= 2012.5\nsquared_error = 0.001\nsamples = 7\nvalue = 0.171", fillcolor="#fbe9dd"] ;
504 -> 505 ;
506 [label="km_driven <= 0.04\nsquared_error = 0.0\nsamples = 5\nvalue = 0.151", fillcolor="#fbece1"] ;
505 -> 506 ;
507 [label="km_driven <= 0.031\nsquared_error = 0.0\nsamples = 3\nvalue = 0.141", fillcolor="#fbede3"] ;
506 -> 507 ;
508 [label="squared_error = 0.0\nsamples = 1\nvalue = 0.157", fillcolor="#fbebe0"] ;
507 -> 508 ;
509 [label="squared_error = 0.0\nsamples = 2\nvalue = 0.132", fillcolor="#fceee5"] ;
507 -> 509 ;
510 [label="squared_error = -0.0\nsamples = 2\nvalue = 0.168", fillcolor="#fbeade"] ;
506 -> 510 ;
511 [label="owner <= 1.0\nsquared_error = 0.001\nsamples = 2\nvalue = 0.219", fillcolor="#f9e3d4"] ;
505 -> 511 ;
512 [label="squared_error = 0.0\nsamples = 1\nvalue = 0.255", fillcolor="#f8dfcc"] ;
511 -> 512 ;
513 [label="squared_error = 0.0\nsamples = 1\nvalue = 0.183", fillcolor="#fae8db"] ;
511 -> 513 ;
514 [label="name <= 27.5\nsquared_error = 0.001\nsamples = 4\nvalue = 0.086", fillcolor="#fdf4ee"] ;
504 -> 514 ;
515 [label="year <= 2015.5\nsquared_error = 0.0\nsamples = 3\nvalue = 0.067", fillcolor="#fdf7f2"] ;
514 -> 515 ;
516 [label="squared_error = 0.0\nsamples = 1\nvalue = 0.037", fillcolor="#fefaf8"] ;
515 -> 516 ;
517 [label="squared_error = -0.0\nsamples = 2\nvalue = 0.082", fillcolor="#fdf5ef"] ;
515 -> 517 ;
518 [label="squared_error = 0.0\nsamples = 1\nvalue = 0.142", fillcolor="#fbede3"] ;
514 -> 518 ;
519 [label="km_driven <= 0.007\nsquared_error = 0.003\nsamples = 231\nvalue = 0.063", fillcolor="#fdf7f2"] ;
329 -> 519 ;
520 [label="km_driven <= 0.007\nsquared_error = 0.006\nsamples = 106\nvalue = 0.085", fillcolor="#fdf4ee"] ;
519 -> 520 ;
521 [label="name <= 17.0\nsquared_error = 0.0\nsamples = 100\nvalue = 0.069", fillcolor="#fdf6f1"] ;
520 -> 521 ;
522 [label="name <= 12.5\nsquared_error = 0.001\nsamples = 49\nvalue = 0.079", fillcolor="#fdf5ef"] ;
521 -> 522 ;
523 [label="name <= 10.5\nsquared_error = 0.0\nsamples = 48\nvalue = 0.076", fillcolor="#fdf5f0"] ;
522 -> 523 ;
524 [label="seller_type <= 1.5\nsquared_error = 0.0\nsamples = 35\nvalue = 0.08", fillcolor="#fdf5ef"] ;
523 -> 524 ;
525 [label="km_driven <= 0.002\nsquared_error = 0.0\nsamples = 12\nvalue = 0.091", fillcolor="#fdf4ed"] ;
524 -> 525 ;
526 [label="km_driven <= 0.001\nsquared_error = 0.0\nsamples = 6\nvalue = 0.097", fillcolor="#fcf3ec"] ;
525 -> 526 ;
527 [label="km_driven <= 0.0\nsquared_error = 0.0\nsamples = 4\nvalue = 0.085", fillcolor="#fdf4ee"] ;
526 -> 527 ;
528 [label="squared_error = 0.0\nsamples = 1\nvalue = 0.106", fillcolor="#fcf2ea"] ;
527 -> 528 ;
529 [label="km_driven <= 0.001\nsquared_error = 0.0\nsamples = 3\nvalue = 0.078", fillcolor="#fdf5f0"] ;
527 -> 529 ;
530 [label="squared_error = 0.0\nsamples = 2\nvalue = 0.081", fillcolor="#fdf5ef"] ;
529 -> 530 ;
531 [label="squared_error = 0.0\nsamples = 1\nvalue = 0.072", fillcolor="#fdf6f1"] ;
529 -> 531 ;
532 [label="squared_error = 0.0\nsamples = 2\nvalue = 0.12", fillcolor="#fcf0e7"] ;
526 -> 532 ;
533 [label="km_driven <= 0.002\nsquared_error = 0.0\nsamples = 6\nvalue = 0.085", fillcolor="#fdf4ee"] ;
525 -> 533 ;
534 [label="squared_error = 0.0\nsamples = 2\nvalue = 0.07", fillcolor="#fdf6f1"] ;
533 -> 534 ;
535 [label="year <= 2017.5\nsquared_error = 0.0\nsamples = 4\nvalue = 0.092", fillcolor="#fdf3ed"] ;
533 -> 535 ;
536 [label="km_driven <= 0.004\nsquared_error = 0.0\nsamples = 3\nvalue = 0.099", fillcolor="#fcf3eb"] ;
535 -> 536 ;
537 [label="squared_error = 0.0\nsamples = 1\nvalue = 0.112", fillcolor="#fcf1e9"] ;
536 -> 537 ;
538 [label="squared_error = -0.0\nsamples = 2\nvalue = 0.092", fillcolor="#fdf3ed"] ;
536 -> 538 ;
539 [label="squared_error = -0.0\nsamples = 1\nvalue = 0.072", fillcolor="#fdf6f1"] ;
535 -> 539 ;
540 [label="squared_error = 0.0\nsamples = 23\nvalue = 0.075", fillcolor="#fdf6f0"] ;
524 -> 540 ;
541 [label="year <= 2018.5\nsquared_error = 0.001\nsamples = 13\nvalue = 0.065", fillcolor="#fdf7f2"] ;
523 -> 541 ;
542 [label="km_driven <= 0.003\nsquared_error = 0.001\nsamples = 7\nvalue = 0.072", fillcolor="#fdf6f1"] ;
541 -> 542 ;
543 [label="squared_error = 0.0\nsamples = 1\nvalue = 0.132", fillcolor="#fceee5"] ;
542 -> 543 ;
544 [label="year <= 2017.5\nsquared_error = 0.0\nsamples = 6\nvalue = 0.062", fillcolor="#fdf7f3"] ;
542 -> 544 ;
545 [label="km_driven <= 0.005\nsquared_error = 0.001\nsamples = 2\nvalue = 0.075", fillcolor="#fdf6f0"] ;
544 -> 545 ;
546 [label="squared_error = 0.0\nsamples = 1\nvalue = 0.052", fillcolor="#fef8f5"] ;
545 -> 546 ;
547 [label="squared_error = 0.0\nsamples = 1\nvalue = 0.097", fillcolor="#fcf3ec"] ;
545 -> 547 ;
548 [label="owner <= 1.0\nsquared_error = 0.0\nsamples = 4\nvalue = 0.056", fillcolor="#fef8f4"] ;
544 -> 548 ;
549 [label="km_driven <= 0.005\nsquared_error = 0.0\nsamples = 3\nvalue = 0.054", fillcolor="#fef8f4"] ;
548 -> 549 ;
550 [label="squared_error = 0.0\nsamples = 1\nvalue = 0.054", fillcolor="#fef8f4"] ;
549 -> 550 ;
551 [label="squared_error = 0.0\nsamples = 2\nvalue = 0.055", fillcolor="#fef8f4"] ;
549 -> 551 ;
552 [label="squared_error = -0.0\nsamples = 1\nvalue = 0.062", fillcolor="#fdf7f3"] ;
548 -> 552 ;
553 [label="km_driven <= 0.006\nsquared_error = 0.0\nsamples = 6\nvalue = 0.056", fillcolor="#fef8f4"] ;
541 -> 553 ;
554 [label="year <= 2019.5\nsquared_error = 0.0\nsamples = 5\nvalue = 0.053", fillcolor="#fef8f4"] ;
553 -> 554 ;
555 [label="km_driven <= 0.002\nsquared_error = 0.0\nsamples = 4\nvalue = 0.051", fillcolor="#fef9f5"] ;
554 -> 555 ;
556 [label="km_driven <= 0.001\nsquared_error = 0.0\nsamples = 2\nvalue = 0.048", fillcolor="#fef9f5"] ;
555 -> 556 ;
557 [label="squared_error = 0.0\nsamples = 1\nvalue = 0.049", fillcolor="#fef9f5"] ;
556 -> 557 ;
558 [label="squared_error = 0.0\nsamples = 1\nvalue = 0.047", fillcolor="#fef9f6"] ;
556 -> 558 ;
559 [label="km_driven <= 0.004\nsquared_error = 0.0\nsamples = 2\nvalue = 0.053", fillcolor="#fef8f5"] ;
555 -> 559 ;
560 [label="squared_error = 0.0\nsamples = 1\nvalue = 0.054", fillcolor="#fef8f4"] ;
559 -> 560 ;
561 [label="squared_error = 0.0\nsamples = 1\nvalue = 0.052", fillcolor="#fef8f5"] ;
559 -> 561 ;
562 [label="squared_error = -0.0\nsamples = 1\nvalue = 0.065", fillcolor="#fdf7f2"] ;
554 -> 562 ;
563 [label="squared_error = 0.0\nsamples = 1\nvalue = 0.069", fillcolor="#fdf6f1"] ;
553 -> 563 ;
564 [label="squared_error = 0.0\nsamples = 1\nvalue = 0.208", fillcolor="#fae5d6"] ;
522 -> 564 ;
565 [label="km_driven <= 0.006\nsquared_error = 0.0\nsamples = 51\nvalue = 0.06", fillcolor="#fdf7f3"] ;
521 -> 565 ;
566 [label="owner <= 1.0\nsquared_error = 0.0\nsamples = 50\nvalue = 0.06", fillcolor="#fdf7f3"] ;
565 -> 566 ;
567 [label="year <= 2019.5\nsquared_error = 0.0\nsamples = 48\nvalue = 0.061", fillcolor="#fdf7f3"] ;
566 -> 567 ;
568 [label="km_driven <= 0.002\nsquared_error = 0.0\nsamples = 44\nvalue = 0.06", fillcolor="#fdf7f3"] ;
567 -> 568 ;
569 [label="year <= 2018.5\nsquared_error = 0.0\nsamples = 5\nvalue = 0.054", fillcolor="#fef8f4"] ;
568 -> 569 ;
570 [label="name <= 24.0\nsquared_error = 0.0\nsamples = 2\nvalue = 0.064", fillcolor="#fdf7f2"] ;
569 -> 570 ;
571 [label="squared_error = 0.0\nsamples = 1\nvalue = 0.08", fillcolor="#fdf5ef"] ;
570 -> 571 ;
572 [label="squared_error = 0.0\nsamples = 1\nvalue = 0.047", fillcolor="#fef9f6"] ;
570 -> 572 ;
573 [label="squared_error = 0.0\nsamples = 3\nvalue = 0.047", fillcolor="#fef9f6"] ;
569 -> 573 ;
574 [label="km_driven <= 0.003\nsquared_error = 0.0\nsamples = 39\nvalue = 0.061", fillcolor="#fdf7f3"] ;
568 -> 574 ;
575 [label="seller_type <= 1.5\nsquared_error = 0.0\nsamples = 24\nvalue = 0.063", fillcolor="#fdf7f2"] ;
574 -> 575 ;
576 [label="km_driven <= 0.003\nsquared_error = 0.0\nsamples = 5\nvalue = 0.067", fillcolor="#fdf7f2"] ;
575 -> 576 ;
577 [label="squared_error = 0.0\nsamples = 2\nvalue = 0.072", fillcolor="#fdf6f1"] ;
576 -> 577 ;
578 [label="year <= 2018.5\nsquared_error = 0.0\nsamples = 3\nvalue = 0.064", fillcolor="#fdf7f2"] ;
576 -> 578 ;
579 [label="squared_error = 0.0\nsamples = 2\nvalue = 0.067", fillcolor="#fdf7f2"] ;
578 -> 579 ;
580 [label="squared_error = -0.0\nsamples = 1\nvalue = 0.057", fillcolor="#fef8f4"] ;
578 -> 580 ;
581 [label="squared_error = 0.0\nsamples = 19\nvalue = 0.062", fillcolor="#fdf7f3"] ;
575 -> 581 ;
582 [label="name <= 23.5\nsquared_error = 0.0\nsamples = 15\nvalue = 0.057", fillcolor="#fef8f4"] ;
574 -> 582 ;
583 [label="km_driven <= 0.006\nsquared_error = 0.0\nsamples = 12\nvalue = 0.056", fillcolor="#fef8f4"] ;
582 -> 583 ;
584 [label="km_driven <= 0.005\nsquared_error = 0.0\nsamples = 8\nvalue = 0.053", fillcolor="#fef8f5"] ;
583 -> 584 ;
585 [label="year <= 2018.0\nsquared_error = 0.0\nsamples = 7\nvalue = 0.055", fillcolor="#fef8f4"] ;
584 -> 585 ;
586 [label="squared_error = 0.0\nsamples = 3\nvalue = 0.05", fillcolor="#fef9f5"] ;
585 -> 586 ;
587 [label="squared_error = 0.0\nsamples = 4\nvalue = 0.059", fillcolor="#fdf8f3"] ;
585 -> 587 ;
588 [label="squared_error = 0.0\nsamples = 1\nvalue = 0.035", fillcolor="#fefbf8"] ;
584 -> 588 ;
589 [label="year <= 2017.5\nsquared_error = 0.0\nsamples = 4\nvalue = 0.062", fillcolor="#fdf7f3"] ;
583 -> 589 ;
590 [label="squared_error = 0.0\nsamples = 1\nvalue = 0.067", fillcolor="#fdf7f2"] ;
589 -> 590 ;
591 [label="year <= 2018.5\nsquared_error = 0.0\nsamples = 3\nvalue = 0.06", fillcolor="#fdf7f3"] ;
589 -> 591 ;
592 [label="squared_error = 0.0\nsamples = 2\nvalue = 0.059", fillcolor="#fdf8f3"] ;
591 -> 592 ;
593 [label="squared_error = 0.0\nsamples = 1\nvalue = 0.062", fillcolor="#fdf7f3"] ;
591 -> 593 ;
594 [label="name <= 27.5\nsquared_error = 0.0\nsamples = 3\nvalue = 0.064", fillcolor="#fdf7f2"] ;
582 -> 594 ;
595 [label="squared_error = 0.0\nsamples = 1\nvalue = 0.081", fillcolor="#fdf5ef"] ;
594 -> 595 ;
596 [label="year <= 2018.5\nsquared_error = 0.0\nsamples = 2\nvalue = 0.056", fillcolor="#fef8f4"] ;
594 -> 596 ;
597 [label="squared_error = 0.0\nsamples = 1\nvalue = 0.062", fillcolor="#fdf7f3"] ;
596 -> 597 ;
598 [label="squared_error = 0.0\nsamples = 1\nvalue = 0.05", fillcolor="#fef9f5"] ;
596 -> 598 ;
599 [label="name <= 24.0\nsquared_error = 0.0\nsamples = 4\nvalue = 0.071", fillcolor="#fdf6f1"] ;
567 -> 599 ;
600 [label="km_driven <= 0.003\nsquared_error = 0.0\nsamples = 3\nvalue = 0.064", fillcolor="#fdf7f2"] ;
599 -> 600 ;
601 [label="km_driven <= 0.001\nsquared_error = 0.0\nsamples = 2\nvalue = 0.06", fillcolor="#fdf7f3"] ;
600 -> 601 ;
602 [label="squared_error = 0.0\nsamples = 1\nvalue = 0.063", fillcolor="#fdf7f3"] ;
601 -> 602 ;
603 [label="squared_error = 0.0\nsamples = 1\nvalue = 0.057", fillcolor="#fef8f4"] ;
601 -> 603 ;
604 [label="squared_error = 0.0\nsamples = 1\nvalue = 0.071", fillcolor="#fdf6f1"] ;
600 -> 604 ;
605 [label="squared_error = 0.0\nsamples = 1\nvalue = 0.092", fillcolor="#fdf3ed"] ;
599 -> 605 ;
606 [label="km_driven <= 0.002\nsquared_error = 0.0\nsamples = 2\nvalue = 0.045", fillcolor="#fef9f6"] ;
566 -> 606 ;
607 [label="squared_error = 0.0\nsamples = 1\nvalue = 0.042", fillcolor="#fefaf7"] ;
606 -> 607 ;
608 [label="squared_error = 0.0\nsamples = 1\nvalue = 0.048", fillcolor="#fef9f5"] ;
606 -> 608 ;
609 [label="squared_error = -0.0\nsamples = 1\nvalue = 0.032", fillcolor="#fefbf9"] ;
565 -> 609 ;
610 [label="year <= 2016.5\nsquared_error = 0.02\nsamples = 6\nvalue = 0.346", fillcolor="#f6d3bb"] ;
520 -> 610 ;
611 [label="squared_error = 0.0\nsamples = 1\nvalue = 0.032", fillcolor="#fefbf9"] ;
610 -> 611 ;
612 [label="squared_error = 0.0\nsamples = 5\nvalue = 0.408", fillcolor="#f4ccae"] ;
610 -> 612 ;
613 [label="year <= 2009.5\nsquared_error = 0.001\nsamples = 125\nvalue = 0.045", fillcolor="#fef9f6"] ;
519 -> 613 ;
614 [label="name <= 10.5\nsquared_error = 0.0\nsamples = 26\nvalue = 0.016", fillcolor="#fffdfc"] ;
613 -> 614 ;
615 [label="km_driven <= 0.067\nsquared_error = 0.0\nsamples = 11\nvalue = 0.024", fillcolor="#fefcfa"] ;
614 -> 615 ;
616 [label="km_driven <= 0.047\nsquared_error = 0.0\nsamples = 9\nvalue = 0.027", fillcolor="#fefcfa"] ;
615 -> 616 ;
617 [label="km_driven <= 0.04\nsquared_error = 0.0\nsamples = 7\nvalue = 0.023", fillcolor="#fefcfa"] ;
616 -> 617 ;
618 [label="owner <= 3.0\nsquared_error = 0.0\nsamples = 5\nvalue = 0.027", fillcolor="#fefcfa"] ;
617 -> 618 ;
619 [label="year <= 2006.0\nsquared_error = 0.0\nsamples = 3\nvalue = 0.029", fillcolor="#fefbf9"] ;
618 -> 619 ;
620 [label="squared_error = 0.0\nsamples = 1\nvalue = 0.026", fillcolor="#fefcfa"] ;
619 -> 620 ;
621 [label="km_driven <= 0.033\nsquared_error = 0.0\nsamples = 2\nvalue = 0.031", fillcolor="#fefbf9"] ;
619 -> 621 ;
622 [label="squared_error = 0.0\nsamples = 1\nvalue = 0.03", fillcolor="#fefbf9"] ;
621 -> 622 ;
623 [label="squared_error = -0.0\nsamples = 1\nvalue = 0.032", fillcolor="#fefbf9"] ;
621 -> 623 ;
624 [label="year <= 2008.5\nsquared_error = 0.0\nsamples = 2\nvalue = 0.024", fillcolor="#fefcfa"] ;
618 -> 624 ;
625 [label="squared_error = 0.0\nsamples = 1\nvalue = 0.022", fillcolor="#fefcfb"] ;
624 -> 625 ;
626 [label="squared_error = -0.0\nsamples = 1\nvalue = 0.025", fillcolor="#fefcfa"] ;
624 -> 626 ;
627 [label="km_driven <= 0.043\nsquared_error = 0.0\nsamples = 2\nvalue = 0.015", fillcolor="#fffdfc"] ;
617 -> 627 ;
628 [label="squared_error = 0.0\nsamples = 1\nvalue = 0.008", fillcolor="#fffefd"] ;
627 -> 628 ;
629 [label="squared_error = -0.0\nsamples = 1\nvalue = 0.022", fillcolor="#fefcfb"] ;
627 -> 629 ;
630 [label="year <= 2006.5\nsquared_error = 0.0\nsamples = 2\nvalue = 0.038", fillcolor="#fefaf7"] ;
616 -> 630 ;
631 [label="squared_error = 0.0\nsamples = 1\nvalue = 0.03", fillcolor="#fefbf9"] ;
630 -> 631 ;
632 [label="squared_error = 0.0\nsamples = 1\nvalue = 0.047", fillcolor="#fef9f6"] ;
630 -> 632 ;
633 [label="km_driven <= 0.088\nsquared_error = 0.0\nsamples = 2\nvalue = 0.012", fillcolor="#fffdfd"] ;
615 -> 633 ;
634 [label="squared_error = 0.0\nsamples = 1\nvalue = 0.01", fillcolor="#fffefd"] ;
633 -> 634 ;
635 [label="squared_error = 0.0\nsamples = 1\nvalue = 0.015", fillcolor="#fffdfc"] ;
633 -> 635 ;
636 [label="year <= 2007.5\nsquared_error = 0.0\nsamples = 15\nvalue = 0.011", fillcolor="#fffefd"] ;
614 -> 636 ;
637 [label="km_driven <= 0.039\nsquared_error = 0.0\nsamples = 11\nvalue = 0.007", fillcolor="#fffefe"] ;
636 -> 637 ;
638 [label="km_driven <= 0.026\nsquared_error = 0.0\nsamples = 5\nvalue = 0.005", fillcolor="#fffefe"] ;
637 -> 638 ;
639 [label="squared_error = 0.0\nsamples = 1\nvalue = 0.005", fillcolor="#fffefe"] ;
638 -> 639 ;
640 [label="squared_error = 0.0\nsamples = 4\nvalue = 0.005", fillcolor="#fffefe"] ;
638 -> 640 ;
641 [label="owner <= 1.5\nsquared_error = 0.0\nsamples = 6\nvalue = 0.009", fillcolor="#fffefd"] ;
637 -> 641 ;
642 [label="name <= 15.5\nsquared_error = 0.0\nsamples = 2\nvalue = 0.01", fillcolor="#fffefd"] ;
641 -> 642 ;
643 [label="squared_error = 0.0\nsamples = 1\nvalue = 0.011", fillcolor="#fffefd"] ;
642 -> 643 ;
644 [label="squared_error = 0.0\nsamples = 1\nvalue = 0.01", fillcolor="#fffefd"] ;
642 -> 644 ;
645 [label="year <= 2005.5\nsquared_error = 0.0\nsamples = 4\nvalue = 0.008", fillcolor="#fffefd"] ;
641 -> 645 ;
646 [label="km_driven <= 0.061\nsquared_error = 0.0\nsamples = 2\nvalue = 0.01", fillcolor="#fffefd"] ;
645 -> 646 ;
647 [label="squared_error = 0.0\nsamples = 1\nvalue = 0.01", fillcolor="#fffefd"] ;
646 -> 647 ;
648 [label="squared_error = -0.0\nsamples = 1\nvalue = 0.009", fillcolor="#fffefd"] ;
646 -> 648 ;
649 [label="name <= 15.5\nsquared_error = 0.0\nsamples = 2\nvalue = 0.007", fillcolor="#fffefe"] ;
645 -> 649 ;
650 [label="squared_error = 0.0\nsamples = 1\nvalue = 0.007", fillcolor="#fffefe"] ;
649 -> 650 ;
651 [label="squared_error = 0.0\nsamples = 1\nvalue = 0.007", fillcolor="#fffefe"] ;
649 -> 651 ;
652 [label="year <= 2008.5\nsquared_error = 0.0\nsamples = 4\nvalue = 0.021", fillcolor="#fefcfb"] ;
636 -> 652 ;
653 [label="owner <= 1.0\nsquared_error = 0.0\nsamples = 2\nvalue = 0.016", fillcolor="#fffdfc"] ;
652 -> 653 ;
654 [label="squared_error = 0.0\nsamples = 1\nvalue = 0.014", fillcolor="#fffdfc"] ;
653 -> 654 ;
655 [label="squared_error = 0.0\nsamples = 1\nvalue = 0.019", fillcolor="#fffdfb"] ;
653 -> 655 ;
656 [label="km_driven <= 0.031\nsquared_error = 0.0\nsamples = 2\nvalue = 0.025", fillcolor="#fefcfa"] ;
652 -> 656 ;
657 [label="squared_error = 0.0\nsamples = 1\nvalue = 0.033", fillcolor="#fefbf8"] ;
656 -> 657 ;
658 [label="squared_error = -0.0\nsamples = 1\nvalue = 0.017", fillcolor="#fffdfc"] ;
656 -> 658 ;
659 [label="year <= 2015.5\nsquared_error = 0.001\nsamples = 99\nvalue = 0.053", fillcolor="#fef8f5"] ;
613 -> 659 ;
660 [label="km_driven <= 0.018\nsquared_error = 0.001\nsamples = 42\nvalue = 0.044", fillcolor="#fef9f6"] ;
659 -> 660 ;
661 [label="km_driven <= 0.017\nsquared_error = 0.001\nsamples = 16\nvalue = 0.055", fillcolor="#fef8f4"] ;
660 -> 661 ;
662 [label="year <= 2010.5\nsquared_error = 0.001\nsamples = 15\nvalue = 0.051", fillcolor="#fef9f5"] ;
661 -> 662 ;
663 [label="km_driven <= 0.013\nsquared_error = 0.001\nsamples = 3\nvalue = 0.076", fillcolor="#fdf5f0"] ;
662 -> 663 ;
664 [label="name <= 15.0\nsquared_error = 0.001\nsamples = 2\nvalue = 0.055", fillcolor="#fef8f4"] ;
663 -> 664 ;
665 [label="squared_error = 0.0\nsamples = 1\nvalue = 0.077", fillcolor="#fdf5f0"] ;
664 -> 665 ;
666 [label="squared_error = -0.0\nsamples = 1\nvalue = 0.032", fillcolor="#fefbf9"] ;
664 -> 666 ;
667 [label="squared_error = 0.0\nsamples = 1\nvalue = 0.117", fillcolor="#fcf0e8"] ;
663 -> 667 ;
668 [label="name <= 10.5\nsquared_error = 0.0\nsamples = 12\nvalue = 0.045", fillcolor="#fef9f6"] ;
662 -> 668 ;
669 [label="km_driven <= 0.014\nsquared_error = 0.001\nsamples = 4\nvalue = 0.061", fillcolor="#fdf7f3"] ;
668 -> 669 ;
670 [label="name <= 9.5\nsquared_error = 0.0\nsamples = 2\nvalue = 0.084", fillcolor="#fdf4ee"] ;
669 -> 670 ;
671 [label="squared_error = 0.0\nsamples = 1\nvalue = 0.075", fillcolor="#fdf6f0"] ;
670 -> 671 ;
672 [label="squared_error = -0.0\nsamples = 1\nvalue = 0.092", fillcolor="#fdf3ed"] ;
670 -> 672 ;
673 [label="squared_error = 0.0\nsamples = 2\nvalue = 0.039", fillcolor="#fefaf7"] ;
669 -> 673 ;
674 [label="km_driven <= 0.011\nsquared_error = 0.0\nsamples = 8\nvalue = 0.036", fillcolor="#fefaf8"] ;
668 -> 674 ;
675 [label="name <= 25.5\nsquared_error = 0.0\nsamples = 4\nvalue = 0.029", fillcolor="#fefbf9"] ;
674 -> 675 ;
676 [label="year <= 2012.5\nsquared_error = 0.0\nsamples = 3\nvalue = 0.031", fillcolor="#fefbf9"] ;
675 -> 676 ;
677 [label="squared_error = 0.0\nsamples = 1\nvalue = 0.024", fillcolor="#fefcfa"] ;
676 -> 677 ;
678 [label="year <= 2014.5\nsquared_error = 0.0\nsamples = 2\nvalue = 0.035", fillcolor="#fefbf8"] ;
676 -> 678 ;
679 [label="squared_error = 0.0\nsamples = 1\nvalue = 0.033", fillcolor="#fefbf8"] ;
678 -> 679 ;
680 [label="squared_error = 0.0\nsamples = 1\nvalue = 0.037", fillcolor="#fefaf8"] ;
678 -> 680 ;
681 [label="squared_error = -0.0\nsamples = 1\nvalue = 0.022", fillcolor="#fefcfb"] ;
675 -> 681 ;
682 [label="km_driven <= 0.013\nsquared_error = 0.0\nsamples = 4\nvalue = 0.044", fillcolor="#fef9f6"] ;
674 -> 682 ;
683 [label="squared_error = 0.0\nsamples = 1\nvalue = 0.066", fillcolor="#fdf7f2"] ;
682 -> 683 ;
684 [label="km_driven <= 0.015\nsquared_error = 0.0\nsamples = 3\nvalue = 0.037", fillcolor="#fefaf8"] ;
682 -> 684 ;
685 [label="squared_error = 0.0\nsamples = 2\nvalue = 0.037", fillcolor="#fefaf8"] ;
684 -> 685 ;
686 [label="squared_error = 0.0\nsamples = 1\nvalue = 0.037", fillcolor="#fefaf8"] ;
684 -> 686 ;
687 [label="squared_error = 0.0\nsamples = 1\nvalue = 0.122", fillcolor="#fcf0e7"] ;
661 -> 687 ;
688 [label="seller_type <= 1.5\nsquared_error = 0.0\nsamples = 26\nvalue = 0.037", fillcolor="#fefaf8"] ;
660 -> 688 ;
689 [label="owner <= 3.0\nsquared_error = 0.0\nsamples = 25\nvalue = 0.036", fillcolor="#fefbf8"] ;
688 -> 689 ;
690 [label="name <= 10.5\nsquared_error = 0.0\nsamples = 21\nvalue = 0.037", fillcolor="#fefaf8"] ;
689 -> 690 ;
691 [label="year <= 2012.5\nsquared_error = 0.0\nsamples = 4\nvalue = 0.041", fillcolor="#fefaf7"] ;
690 -> 691 ;
692 [label="squared_error = 0.0\nsamples = 1\nvalue = 0.029", fillcolor="#fefbf9"] ;
691 -> 692 ;
693 [label="km_driven <= 0.02\nsquared_error = 0.0\nsamples = 3\nvalue = 0.045", fillcolor="#fef9f6"] ;
691 -> 693 ;
694 [label="squared_error = 0.0\nsamples = 2\nvalue = 0.04", fillcolor="#fefaf7"] ;
693 -> 694 ;
695 [label="squared_error = -0.0\nsamples = 1\nvalue = 0.055", fillcolor="#fef8f4"] ;
693 -> 695 ;
696 [label="km_driven <= 0.023\nsquared_error = 0.0\nsamples = 17\nvalue = 0.036", fillcolor="#fefaf8"] ;
690 -> 696 ;
697 [label="year <= 2014.0\nsquared_error = 0.0\nsamples = 5\nvalue = 0.031", fillcolor="#fefbf9"] ;
696 -> 697 ;
698 [label="squared_error = 0.0\nsamples = 1\nvalue = 0.026", fillcolor="#fefcfa"] ;
697 -> 698 ;
699 [label="name <= 21.5\nsquared_error = 0.0\nsamples = 4\nvalue = 0.033", fillcolor="#fefbf9"] ;
697 -> 699 ;
700 [label="name <= 15.5\nsquared_error = 0.0\nsamples = 2\nvalue = 0.036", fillcolor="#fefbf8"] ;
699 -> 700 ;
701 [label="squared_error = 0.0\nsamples = 1\nvalue = 0.035", fillcolor="#fefbf8"] ;
700 -> 701 ;
702 [label="squared_error = 0.0\nsamples = 1\nvalue = 0.036", fillcolor="#fefaf8"] ;
700 -> 702 ;
703 [label="squared_error = -0.0\nsamples = 2\nvalue = 0.03", fillcolor="#fefbf9"] ;
699 -> 703 ;
704 [label="km_driven <= 0.036\nsquared_error = 0.0\nsamples = 12\nvalue = 0.038", fillcolor="#fefaf7"] ;
696 -> 704 ;
705 [label="year <= 2014.5\nsquared_error = 0.0\nsamples = 6\nvalue = 0.042", fillcolor="#fefaf7"] ;
704 -> 705 ;
706 [label="year <= 2013.5\nsquared_error = 0.0\nsamples = 4\nvalue = 0.047", fillcolor="#fef9f6"] ;
705 -> 706 ;
707 [label="owner <= 1.0\nsquared_error = 0.0\nsamples = 3\nvalue = 0.043", fillcolor="#fefaf6"] ;
706 -> 707 ;
708 [label="km_driven <= 0.03\nsquared_error = 0.0\nsamples = 2\nvalue = 0.046", fillcolor="#fef9f6"] ;
707 -> 708 ;
709 [label="squared_error = 0.0\nsamples = 1\nvalue = 0.047", fillcolor="#fef9f6"] ;
708 -> 709 ;
710 [label="squared_error = 0.0\nsamples = 1\nvalue = 0.045", fillcolor="#fef9f6"] ;
708 -> 710 ;
711 [label="squared_error = 0.0\nsamples = 1\nvalue = 0.037", fillcolor="#fefaf8"] ;
707 -> 711 ;
712 [label="squared_error = -0.0\nsamples = 1\nvalue = 0.057", fillcolor="#fef8f4"] ;
706 -> 712 ;
713 [label="name <= 17.0\nsquared_error = 0.0\nsamples = 2\nvalue = 0.032", fillcolor="#fefbf9"] ;
705 -> 713 ;
714 [label="squared_error = 0.0\nsamples = 1\nvalue = 0.037", fillcolor="#fefaf8"] ;
713 -> 714 ;
715 [label="squared_error = 0.0\nsamples = 1\nvalue = 0.027", fillcolor="#fefcfa"] ;
713 -> 715 ;
716 [label="km_driven <= 0.04\nsquared_error = 0.0\nsamples = 6\nvalue = 0.035", fillcolor="#fefbf8"] ;
704 -> 716 ;
717 [label="km_driven <= 0.038\nsquared_error = 0.0\nsamples = 2\nvalue = 0.03", fillcolor="#fefbf9"] ;
716 -> 717 ;
718 [label="squared_error = 0.0\nsamples = 1\nvalue = 0.032", fillcolor="#fefbf9"] ;
717 -> 718 ;
719 [label="squared_error = -0.0\nsamples = 1\nvalue = 0.028", fillcolor="#fefbf9"] ;
717 -> 719 ;
720 [label="km_driven <= 0.057\nsquared_error = 0.0\nsamples = 4\nvalue = 0.037", fillcolor="#fefaf8"] ;
716 -> 720 ;
721 [label="owner <= 1.0\nsquared_error = 0.0\nsamples = 3\nvalue = 0.039", fillcolor="#fefaf7"] ;
720 -> 721 ;
722 [label="year <= 2013.5\nsquared_error = 0.0\nsamples = 2\nvalue = 0.038", fillcolor="#fefaf7"] ;
721 -> 722 ;
723 [label="squared_error = 0.0\nsamples = 1\nvalue = 0.039", fillcolor="#fefaf7"] ;
722 -> 723 ;
724 [label="squared_error = 0.0\nsamples = 1\nvalue = 0.037", fillcolor="#fefaf8"] ;
722 -> 724 ;
725 [label="squared_error = 0.0\nsamples = 1\nvalue = 0.042", fillcolor="#fefaf7"] ;
721 -> 725 ;
726 [label="squared_error = -0.0\nsamples = 1\nvalue = 0.03", fillcolor="#fefbf9"] ;
720 -> 726 ;
727 [label="name <= 15.5\nsquared_error = 0.0\nsamples = 4\nvalue = 0.028", fillcolor="#fefbf9"] ;
689 -> 727 ;
728 [label="name <= 10.5\nsquared_error = 0.0\nsamples = 2\nvalue = 0.035", fillcolor="#fefbf8"] ;
727 -> 728 ;
729 [label="squared_error = 0.0\nsamples = 1\nvalue = 0.038", fillcolor="#fefaf7"] ;
728 -> 729 ;
730 [label="squared_error = -0.0\nsamples = 1\nvalue = 0.031", fillcolor="#fefbf9"] ;
728 -> 730 ;
731 [label="squared_error = 0.0\nsamples = 2\nvalue = 0.021", fillcolor="#fefcfb"] ;
727 -> 731 ;
732 [label="squared_error = 0.0\nsamples = 1\nvalue = 0.061", fillcolor="#fdf7f3"] ;
688 -> 732 ;
733 [label="km_driven <= 0.022\nsquared_error = 0.001\nsamples = 57\nvalue = 0.06", fillcolor="#fdf7f3"] ;
659 -> 733 ;
734 [label="name <= 10.5\nsquared_error = 0.0\nsamples = 52\nvalue = 0.055", fillcolor="#fef8f4"] ;
733 -> 734 ;
735 [label="km_driven <= 0.014\nsquared_error = 0.0\nsamples = 6\nvalue = 0.08", fillcolor="#fdf5ef"] ;
734 -> 735 ;
736 [label="squared_error = 0.0\nsamples = 2\nvalue = 0.107", fillcolor="#fcf1ea"] ;
735 -> 736 ;
737 [label="year <= 2017.5\nsquared_error = 0.0\nsamples = 4\nvalue = 0.067", fillcolor="#fdf7f2"] ;
735 -> 737 ;
738 [label="km_driven <= 0.019\nsquared_error = 0.0\nsamples = 3\nvalue = 0.061", fillcolor="#fdf7f3"] ;
737 -> 738 ;
739 [label="name <= 9.5\nsquared_error = 0.0\nsamples = 2\nvalue = 0.055", fillcolor="#fef8f4"] ;
738 -> 739 ;
740 [label="squared_error = 0.0\nsamples = 1\nvalue = 0.052", fillcolor="#fef8f5"] ;
739 -> 740 ;
741 [label="squared_error = 0.0\nsamples = 1\nvalue = 0.059", fillcolor="#fdf8f3"] ;
739 -> 741 ;
742 [label="squared_error = 0.0\nsamples = 1\nvalue = 0.072", fillcolor="#fdf6f1"] ;
738 -> 742 ;
743 [label="squared_error = -0.0\nsamples = 1\nvalue = 0.083", fillcolor="#fdf5ef"] ;
737 -> 743 ;
744 [label="year <= 2017.5\nsquared_error = 0.0\nsamples = 46\nvalue = 0.052", fillcolor="#fef8f5"] ;
734 -> 744 ;
745 [label="name <= 27.5\nsquared_error = 0.0\nsamples = 17\nvalue = 0.045", fillcolor="#fef9f6"] ;
744 -> 745 ;
746 [label="name <= 26.5\nsquared_error = 0.0\nsamples = 16\nvalue = 0.046", fillcolor="#fef9f6"] ;
745 -> 746 ;
747 [label="km_driven <= 0.02\nsquared_error = 0.0\nsamples = 15\nvalue = 0.045", fillcolor="#fef9f6"] ;
746 -> 747 ;
748 [label="owner <= 1.0\nsquared_error = 0.0\nsamples = 14\nvalue = 0.046", fillcolor="#fef9f6"] ;
747 -> 748 ;
749 [label="km_driven <= 0.012\nsquared_error = 0.0\nsamples = 13\nvalue = 0.047", fillcolor="#fef9f6"] ;
748 -> 749 ;
750 [label="name <= 21.5\nsquared_error = 0.0\nsamples = 5\nvalue = 0.043", fillcolor="#fefaf6"] ;
749 -> 750 ;
751 [label="km_driven <= 0.01\nsquared_error = 0.0\nsamples = 3\nvalue = 0.038", fillcolor="#fefaf7"] ;
750 -> 751 ;
752 [label="squared_error = 0.0\nsamples = 2\nvalue = 0.04", fillcolor="#fefaf7"] ;
751 -> 752 ;
753 [label="squared_error = 0.0\nsamples = 1\nvalue = 0.035", fillcolor="#fefbf8"] ;
751 -> 753 ;
754 [label="km_driven <= 0.01\nsquared_error = 0.0\nsamples = 2\nvalue = 0.05", fillcolor="#fef9f5"] ;
750 -> 754 ;
755 [label="squared_error = 0.0\nsamples = 1\nvalue = 0.053", fillcolor="#fef8f4"] ;
754 -> 755 ;
756 [label="squared_error = 0.0\nsamples = 1\nvalue = 0.047", fillcolor="#fef9f6"] ;
754 -> 756 ;
757 [label="year <= 2016.5\nsquared_error = 0.0\nsamples = 8\nvalue = 0.049", fillcolor="#fef9f5"] ;
749 -> 757 ;
758 [label="km_driven <= 0.017\nsquared_error = 0.0\nsamples = 2\nvalue = 0.041", fillcolor="#fefaf7"] ;
757 -> 758 ;
759 [label="squared_error = 0.0\nsamples = 1\nvalue = 0.037", fillcolor="#fefaf8"] ;
758 -> 759 ;
760 [label="squared_error = 0.0\nsamples = 1\nvalue = 0.045", fillcolor="#fef9f6"] ;
758 -> 760 ;
761 [label="name <= 23.0\nsquared_error = 0.0\nsamples = 6\nvalue = 0.052", fillcolor="#fef8f5"] ;
757 -> 761 ;
762 [label="km_driven <= 0.015\nsquared_error = 0.0\nsamples = 5\nvalue = 0.054", fillcolor="#fef8f4"] ;
761 -> 762 ;
763 [label="name <= 15.5\nsquared_error = 0.0\nsamples = 3\nvalue = 0.055", fillcolor="#fef8f4"] ;
762 -> 763 ;
764 [label="squared_error = 0.0\nsamples = 1\nvalue = 0.055", fillcolor="#fef8f4"] ;
763 -> 764 ;
765 [label="squared_error = 0.0\nsamples = 2\nvalue = 0.055", fillcolor="#fef8f4"] ;
763 -> 765 ;
766 [label="name <= 15.5\nsquared_error = 0.0\nsamples = 2\nvalue = 0.051", fillcolor="#fef9f5"] ;
762 -> 766 ;
767 [label="squared_error = 0.0\nsamples = 1\nvalue = 0.05", fillcolor="#fef9f5"] ;
766 -> 767 ;
768 [label="squared_error = -0.0\nsamples = 1\nvalue = 0.052", fillcolor="#fef8f5"] ;
766 -> 768 ;
769 [label="squared_error = 0.0\nsamples = 1\nvalue = 0.042", fillcolor="#fefaf7"] ;
761 -> 769 ;
770 [label="squared_error = 0.0\nsamples = 1\nvalue = 0.037", fillcolor="#fefaf8"] ;
748 -> 770 ;
771 [label="squared_error = -0.0\nsamples = 1\nvalue = 0.032", fillcolor="#fefbf9"] ;
747 -> 771 ;
772 [label="squared_error = -0.0\nsamples = 1\nvalue = 0.065", fillcolor="#fdf7f2"] ;
746 -> 772 ;
773 [label="squared_error = -0.0\nsamples = 1\nvalue = 0.019", fillcolor="#fffdfb"] ;
745 -> 773 ;
774 [label="owner <= 0.5\nsquared_error = 0.0\nsamples = 29\nvalue = 0.057", fillcolor="#fef8f4"] ;
744 -> 774 ;
775 [label="name <= 15.5\nsquared_error = 0.0\nsamples = 23\nvalue = 0.059", fillcolor="#fdf8f3"] ;
774 -> 775 ;
776 [label="km_driven <= 0.009\nsquared_error = 0.0\nsamples = 7\nvalue = 0.065", fillcolor="#fdf7f2"] ;
775 -> 776 ;
777 [label="year <= 2018.5\nsquared_error = 0.0\nsamples = 3\nvalue = 0.06", fillcolor="#fdf7f3"] ;
776 -> 777 ;
778 [label="squared_error = 0.0\nsamples = 2\nvalue = 0.057", fillcolor="#fef8f4"] ;
777 -> 778 ;
779 [label="squared_error = 0.0\nsamples = 1\nvalue = 0.067", fillcolor="#fdf7f2"] ;
777 -> 779 ;
780 [label="km_driven <= 0.011\nsquared_error = 0.0\nsamples = 4\nvalue = 0.069", fillcolor="#fdf6f1"] ;
776 -> 780 ;
781 [label="squared_error = 0.0\nsamples = 2\nvalue = 0.077", fillcolor="#fdf5f0"] ;
780 -> 781 ;
782 [label="km_driven <= 0.015\nsquared_error = 0.0\nsamples = 2\nvalue = 0.061", fillcolor="#fdf7f3"] ;
780 -> 782 ;
783 [label="squared_error = 0.0\nsamples = 1\nvalue = 0.055", fillcolor="#fef8f4"] ;
782 -> 783 ;
784 [label="squared_error = 0.0\nsamples = 1\nvalue = 0.067", fillcolor="#fdf7f2"] ;
782 -> 784 ;
785 [label="year <= 2018.5\nsquared_error = 0.0\nsamples = 16\nvalue = 0.056", fillcolor="#fef8f4"] ;
775 -> 785 ;
786 [label="km_driven <= 0.019\nsquared_error = 0.0\nsamples = 9\nvalue = 0.053", fillcolor="#fef8f5"] ;
785 -> 786 ;
787 [label="km_driven <= 0.012\nsquared_error = 0.0\nsamples = 8\nvalue = 0.052", fillcolor="#fef8f5"] ;
786 -> 787 ;
788 [label="name <= 23.0\nsquared_error = 0.0\nsamples = 3\nvalue = 0.054", fillcolor="#fef8f4"] ;
787 -> 788 ;
789 [label="km_driven <= 0.011\nsquared_error = 0.0\nsamples = 2\nvalue = 0.063", fillcolor="#fdf7f2"] ;
788 -> 789 ;
790 [label="squared_error = 0.0\nsamples = 1\nvalue = 0.061", fillcolor="#fdf7f3"] ;
789 -> 790 ;
791 [label="squared_error = 0.0\nsamples = 1\nvalue = 0.065", fillcolor="#fdf7f2"] ;
789 -> 791 ;
792 [label="squared_error = 0.0\nsamples = 1\nvalue = 0.037", fillcolor="#fefaf8"] ;
788 -> 792 ;
793 [label="name <= 23.0\nsquared_error = 0.0\nsamples = 5\nvalue = 0.05", fillcolor="#fef9f5"] ;
787 -> 793 ;
794 [label="km_driven <= 0.014\nsquared_error = 0.0\nsamples = 3\nvalue = 0.045", fillcolor="#fef9f6"] ;
793 -> 794 ;
795 [label="squared_error = 0.0\nsamples = 2\nvalue = 0.044", fillcolor="#fef9f6"] ;
794 -> 795 ;
796 [label="squared_error = 0.0\nsamples = 1\nvalue = 0.047", fillcolor="#fef9f6"] ;
794 -> 796 ;
797 [label="squared_error = 0.001\nsamples = 2\nvalue = 0.058", fillcolor="#fdf8f3"] ;
793 -> 797 ;
798 [label="squared_error = 0.0\nsamples = 1\nvalue = 0.06", fillcolor="#fdf7f3"] ;
786 -> 798 ;
799 [label="km_driven <= 0.011\nsquared_error = 0.0\nsamples = 7\nvalue = 0.06", fillcolor="#fdf7f3"] ;
785 -> 799 ;
800 [label="km_driven <= 0.008\nsquared_error = 0.0\nsamples = 5\nvalue = 0.058", fillcolor="#fdf8f4"] ;
799 -> 800 ;
801 [label="squared_error = 0.0\nsamples = 1\nvalue = 0.066", fillcolor="#fdf7f2"] ;
800 -> 801 ;
802 [label="squared_error = 0.0\nsamples = 4\nvalue = 0.056", fillcolor="#fef8f4"] ;
800 -> 802 ;
803 [label="km_driven <= 0.016\nsquared_error = 0.0\nsamples = 2\nvalue = 0.065", fillcolor="#fdf7f2"] ;
799 -> 803 ;
804 [label="squared_error = 0.0\nsamples = 1\nvalue = 0.062", fillcolor="#fdf7f3"] ;
803 -> 804 ;
805 [label="squared_error = 0.0\nsamples = 1\nvalue = 0.067", fillcolor="#fdf7f2"] ;
803 -> 805 ;
806 [label="km_driven <= 0.011\nsquared_error = 0.0\nsamples = 6\nvalue = 0.048", fillcolor="#fef9f5"] ;
774 -> 806 ;
807 [label="year <= 2018.5\nsquared_error = 0.0\nsamples = 4\nvalue = 0.052", fillcolor="#fef8f5"] ;
806 -> 807 ;
808 [label="squared_error = 0.0\nsamples = 1\nvalue = 0.067", fillcolor="#fdf7f2"] ;
807 -> 808 ;
809 [label="owner <= 1.5\nsquared_error = 0.0\nsamples = 3\nvalue = 0.047", fillcolor="#fef9f6"] ;
807 -> 809 ;
810 [label="squared_error = 0.0\nsamples = 2\nvalue = 0.044", fillcolor="#fef9f6"] ;
809 -> 810 ;
811 [label="squared_error = -0.0\nsamples = 1\nvalue = 0.054", fillcolor="#fef8f4"] ;
809 -> 811 ;
812 [label="name <= 23.0\nsquared_error = 0.0\nsamples = 2\nvalue = 0.04", fillcolor="#fefaf7"] ;
806 -> 812 ;
813 [label="squared_error = 0.0\nsamples = 1\nvalue = 0.042", fillcolor="#fefaf7"] ;
812 -> 813 ;
814 [label="squared_error = 0.0\nsamples = 1\nvalue = 0.037", fillcolor="#fefaf8"] ;
812 -> 814 ;
815 [label="km_driven <= 0.031\nsquared_error = 0.003\nsamples = 5\nvalue = 0.105", fillcolor="#fcf2ea"] ;
733 -> 815 ;
816 [label="name <= 16.0\nsquared_error = 0.001\nsamples = 2\nvalue = 0.166", fillcolor="#fbeade"] ;
815 -> 816 ;
817 [label="squared_error = 0.0\nsamples = 1\nvalue = 0.135", fillcolor="#fbeee4"] ;
816 -> 817 ;
818 [label="squared_error = 0.0\nsamples = 1\nvalue = 0.198", fillcolor="#fae6d8"] ;
816 -> 818 ;
819 [label="owner <= 1.0\nsquared_error = 0.0\nsamples = 3\nvalue = 0.065", fillcolor="#fdf7f2"] ;
815 -> 819 ;
820 [label="year <= 2018.0\nsquared_error = 0.0\nsamples = 2\nvalue = 0.058", fillcolor="#fdf8f3"] ;
819 -> 820 ;
821 [label="squared_error = 0.0\nsamples = 1\nvalue = 0.061", fillcolor="#fdf7f3"] ;
820 -> 821 ;
822 [label="squared_error = 0.0\nsamples = 1\nvalue = 0.056", fillcolor="#fef8f4"] ;
820 -> 822 ;
823 [label="squared_error = 0.0\nsamples = 1\nvalue = 0.077", fillcolor="#fdf5f0"] ;
819 -> 823 ;
824 [label="name <= 29.5\nsquared_error = 0.006\nsamples = 68\nvalue = 0.166", fillcolor="#fbeade"] ;
328 -> 824 ;
825 [label="year <= 2013.0\nsquared_error = 0.004\nsamples = 51\nvalue = 0.197", fillcolor="#fae6d8"] ;
824 -> 825 ;
826 [label="fuel <= 2.0\nsquared_error = 0.001\nsamples = 3\nvalue = 0.07", fillcolor="#fdf6f1"] ;
825 -> 826 ;
827 [label="squared_error = 0.0\nsamples = 1\nvalue = 0.12", fillcolor="#fcf0e7"] ;
826 -> 827 ;
828 [label="km_driven <= 0.04\nsquared_error = 0.0\nsamples = 2\nvalue = 0.045", fillcolor="#fef9f6"] ;
826 -> 828 ;
829 [label="squared_error = 0.0\nsamples = 1\nvalue = 0.037", fillcolor="#fefaf8"] ;
828 -> 829 ;
830 [label="squared_error = 0.0\nsamples = 1\nvalue = 0.052", fillcolor="#fef8f5"] ;
828 -> 830 ;
831 [label="km_driven <= 0.018\nsquared_error = 0.003\nsamples = 48\nvalue = 0.205", fillcolor="#fae5d7"] ;
825 -> 831 ;
832 [label="fuel <= 2.0\nsquared_error = 0.002\nsamples = 10\nvalue = 0.161", fillcolor="#fbebdf"] ;
831 -> 832 ;
833 [label="year <= 2019.0\nsquared_error = 0.001\nsamples = 5\nvalue = 0.184", fillcolor="#fae8db"] ;
832 -> 833 ;
834 [label="km_driven <= 0.014\nsquared_error = 0.0\nsamples = 4\nvalue = 0.173", fillcolor="#fae9dd"] ;
833 -> 834 ;
835 [label="year <= 2017.0\nsquared_error = 0.0\nsamples = 3\nvalue = 0.177", fillcolor="#fae9dc"] ;
834 -> 835 ;
836 [label="year <= 2015.5\nsquared_error = 0.0\nsamples = 2\nvalue = 0.18", fillcolor="#fae8db"] ;
835 -> 836 ;
837 [label="squared_error = 0.0\nsamples = 1\nvalue = 0.183", fillcolor="#fae8db"] ;
836 -> 837 ;
838 [label="squared_error = 0.0\nsamples = 1\nvalue = 0.178", fillcolor="#fae9dc"] ;
836 -> 838 ;
839 [label="squared_error = -0.0\nsamples = 1\nvalue = 0.172", fillcolor="#fbe9dd"] ;
835 -> 839 ;
840 [label="squared_error = -0.0\nsamples = 1\nvalue = 0.16", fillcolor="#fbebdf"] ;
834 -> 840 ;
841 [label="squared_error = -0.0\nsamples = 1\nvalue = 0.228", fillcolor="#f9e2d2"] ;
833 -> 841 ;
842 [label="km_driven <= 0.011\nsquared_error = 0.002\nsamples = 5\nvalue = 0.137", fillcolor="#fbeee4"] ;
832 -> 842 ;
843 [label="km_driven <= 0.004\nsquared_error = 0.0\nsamples = 2\nvalue = 0.091", fillcolor="#fdf3ed"] ;
842 -> 843 ;
844 [label="squared_error = 0.0\nsamples = 1\nvalue = 0.077", fillcolor="#fdf5f0"] ;
843 -> 844 ;
845 [label="squared_error = -0.0\nsamples = 1\nvalue = 0.105", fillcolor="#fcf2ea"] ;
843 -> 845 ;
846 [label="year <= 2018.0\nsquared_error = 0.001\nsamples = 3\nvalue = 0.168", fillcolor="#fbeade"] ;
842 -> 846 ;
847 [label="squared_error = 0.0\nsamples = 1\nvalue = 0.208", fillcolor="#fae5d6"] ;
846 -> 847 ;
848 [label="squared_error = 0.0\nsamples = 2\nvalue = 0.147", fillcolor="#fbece2"] ;
846 -> 848 ;
849 [label="year <= 2016.5\nsquared_error = 0.002\nsamples = 38\nvalue = 0.216", fillcolor="#f9e4d4"] ;
831 -> 849 ;
850 [label="year <= 2014.5\nsquared_error = 0.001\nsamples = 32\nvalue = 0.202", fillcolor="#fae6d7"] ;
849 -> 850 ;
851 [label="squared_error = 0.0\nsamples = 1\nvalue = 0.348", fillcolor="#f6d3ba"] ;
850 -> 851 ;
852 [label="km_driven <= 0.024\nsquared_error = 0.001\nsamples = 31\nvalue = 0.198", fillcolor="#fae6d8"] ;
850 -> 852 ;
853 [label="squared_error = 0.0\nsamples = 1\nvalue = 0.155", fillcolor="#fbebe0"] ;
852 -> 853 ;
854 [label="km_driven <= 0.044\nsquared_error = 0.0\nsamples = 30\nvalue = 0.199", fillcolor="#fae6d8"] ;
852 -> 854 ;
855 [label="km_driven <= 0.033\nsquared_error = 0.0\nsamples = 27\nvalue = 0.202", fillcolor="#fae6d7"] ;
854 -> 855 ;
856 [label="squared_error = -0.0\nsamples = 26\nvalue = 0.198", fillcolor="#fae6d8"] ;
855 -> 856 ;
857 [label="squared_error = -0.0\nsamples = 1\nvalue = 0.308", fillcolor="#f7d8c2"] ;
855 -> 857 ;
858 [label="km_driven <= 0.053\nsquared_error = 0.0\nsamples = 3\nvalue = 0.175", fillcolor="#fae9dc"] ;
854 -> 858 ;
859 [label="squared_error = 0.0\nsamples = 1\nvalue = 0.149", fillcolor="#fbece1"] ;
858 -> 859 ;
860 [label="squared_error = -0.0\nsamples = 2\nvalue = 0.188", fillcolor="#fae7da"] ;
858 -> 860 ;
861 [label="km_driven <= 0.023\nsquared_error = 0.001\nsamples = 6\nvalue = 0.29", fillcolor="#f7dac6"] ;
849 -> 861 ;
862 [label="km_driven <= 0.021\nsquared_error = 0.001\nsamples = 3\nvalue = 0.265", fillcolor="#f8deca"] ;
861 -> 862 ;
863 [label="squared_error = 0.0\nsamples = 1\nvalue = 0.288", fillcolor="#f8dbc6"] ;
862 -> 863 ;
864 [label="squared_error = 0.002\nsamples = 2\nvalue = 0.254", fillcolor="#f8dfcd"] ;
862 -> 864 ;
865 [label="year <= 2017.5\nsquared_error = 0.0\nsamples = 3\nvalue = 0.315", fillcolor="#f7d7c1"] ;
861 -> 865 ;
866 [label="squared_error = 0.0\nsamples = 1\nvalue = 0.308", fillcolor="#f7d8c2"] ;
865 -> 866 ;
867 [label="squared_error = -0.0\nsamples = 2\nvalue = 0.318", fillcolor="#f7d7c0"] ;
865 -> 867 ;
868 [label="year <= 2015.0\nsquared_error = 0.001\nsamples = 17\nvalue = 0.073", fillcolor="#fdf6f0"] ;
824 -> 868 ;
869 [label="km_driven <= 0.036\nsquared_error = 0.0\nsamples = 6\nvalue = 0.048", fillcolor="#fef9f5"] ;
868 -> 869 ;
870 [label="squared_error = 0.0\nsamples = 1\nvalue = 0.082", fillcolor="#fdf5ef"] ;
869 -> 870 ;
871 [label="km_driven <= 0.055\nsquared_error = 0.0\nsamples = 5\nvalue = 0.041", fillcolor="#fefaf7"] ;
869 -> 871 ;
872 [label="year <= 2012.5\nsquared_error = 0.0\nsamples = 4\nvalue = 0.046", fillcolor="#fef9f6"] ;
871 -> 872 ;
873 [label="km_driven <= 0.047\nsquared_error = 0.0\nsamples = 2\nvalue = 0.054", fillcolor="#fef8f4"] ;
872 -> 873 ;
874 [label="squared_error = 0.0\nsamples = 1\nvalue = 0.052", fillcolor="#fef8f5"] ;
873 -> 874 ;
875 [label="squared_error = 0.0\nsamples = 1\nvalue = 0.056", fillcolor="#fef8f4"] ;
873 -> 875 ;
876 [label="squared_error = 0.0\nsamples = 2\nvalue = 0.038", fillcolor="#fefaf7"] ;
872 -> 876 ;
877 [label="squared_error = -0.0\nsamples = 1\nvalue = 0.022", fillcolor="#fefcfb"] ;
871 -> 877 ;
878 [label="km_driven <= 0.038\nsquared_error = 0.001\nsamples = 11\nvalue = 0.087", fillcolor="#fdf4ee"] ;
868 -> 878 ;
879 [label="km_driven <= 0.023\nsquared_error = 0.0\nsamples = 9\nvalue = 0.077", fillcolor="#fdf5f0"] ;
878 -> 879 ;
880 [label="km_driven <= 0.017\nsquared_error = 0.0\nsamples = 3\nvalue = 0.061", fillcolor="#fdf7f3"] ;
879 -> 880 ;
881 [label="squared_error = 0.0\nsamples = 2\nvalue = 0.06", fillcolor="#fdf7f3"] ;
880 -> 881 ;
882 [label="squared_error = 0.0\nsamples = 1\nvalue = 0.063", fillcolor="#fdf7f3"] ;
880 -> 882 ;
883 [label="km_driven <= 0.033\nsquared_error = 0.0\nsamples = 6\nvalue = 0.085", fillcolor="#fdf4ee"] ;
879 -> 883 ;
884 [label="fuel <= 2.0\nsquared_error = 0.0\nsamples = 5\nvalue = 0.09", fillcolor="#fdf4ed"] ;
883 -> 884 ;
885 [label="km_driven <= 0.028\nsquared_error = 0.0\nsamples = 4\nvalue = 0.093", fillcolor="#fdf3ed"] ;
884 -> 885 ;
886 [label="squared_error = 0.0\nsamples = 2\nvalue = 0.097", fillcolor="#fcf3ec"] ;
885 -> 886 ;
887 [label="squared_error = 0.0\nsamples = 2\nvalue = 0.089", fillcolor="#fdf4ed"] ;
885 -> 887 ;
888 [label="squared_error = 0.0\nsamples = 1\nvalue = 0.077", fillcolor="#fdf5f0"] ;
884 -> 888 ;
889 [label="squared_error = -0.0\nsamples = 1\nvalue = 0.062", fillcolor="#fdf7f3"] ;
883 -> 889 ;
890 [label="squared_error = -0.0\nsamples = 2\nvalue = 0.132", fillcolor="#fceee5"] ;
878 -> 890 ;
891 [label="fuel <= 2.0\nsquared_error = 0.014\nsamples = 56\nvalue = 0.322", fillcolor="#f7d6bf"] ;
113 -> 891 ;
892 [label="year <= 2018.5\nsquared_error = 0.006\nsamples = 55\nvalue = 0.31", fillcolor="#f7d8c2"] ;
891 -> 892 ;
893 [label="year <= 2013.5\nsquared_error = 0.001\nsamples = 30\nvalue = 0.247", fillcolor="#f9e0ce"] ;
892 -> 893 ;
894 [label="squared_error = 0.0\nsamples = 1\nvalue = 0.117", fillcolor="#fcf0e8"] ;
893 -> 894 ;
895 [label="km_driven <= 0.005\nsquared_error = 0.001\nsamples = 29\nvalue = 0.252", fillcolor="#f8dfcd"] ;
893 -> 895 ;
896 [label="squared_error = -0.0\nsamples = 26\nvalue = 0.245", fillcolor="#f9e0ce"] ;
895 -> 896 ;
897 [label="year <= 2016.0\nsquared_error = 0.002\nsamples = 3\nvalue = 0.308", fillcolor="#f7d8c2"] ;
895 -> 897 ;
898 [label="squared_error = 0.0\nsamples = 1\nvalue = 0.248", fillcolor="#f9e0ce"] ;
897 -> 898 ;
899 [label="squared_error = 0.0\nsamples = 2\nvalue = 0.338", fillcolor="#f6d4bc"] ;
897 -> 899 ;
900 [label="km_driven <= 0.007\nsquared_error = 0.001\nsamples = 25\nvalue = 0.385", fillcolor="#f5ceb3"] ;
892 -> 900 ;
901 [label="squared_error = 0.0\nsamples = 1\nvalue = 0.549", fillcolor="#f1ba92"] ;
900 -> 901 ;
902 [label="squared_error = 0.0\nsamples = 24\nvalue = 0.378", fillcolor="#f5cfb4"] ;
900 -> 902 ;
903 [label="squared_error = 0.0\nsamples = 1\nvalue = 1.0", fillcolor="#e58139"] ;
891 -> 903 ;
904 [label="year <= 2013.5\nsquared_error = 0.001\nsamples = 5672\nvalue = 0.043", fillcolor="#fefaf7"] ;
0 -> 904 [labeldistance=2.5, labelangle=-45, headlabel="False"] ;
905 [label="year <= 2010.5\nsquared_error = 0.0\nsamples = 2567\nvalue = 0.024", fillcolor="#fefcfa"] ;
904 -> 905 ;
906 [label="name <= 28.5\nsquared_error = 0.0\nsamples = 1119\nvalue = 0.015", fillcolor="#fffdfc"] ;
905 -> 906 ;
907 [label="year <= 2007.5\nsquared_error = 0.0\nsamples = 1055\nvalue = 0.014", fillcolor="#fffdfc"] ;
906 -> 907 ;
908 [label="fuel <= 1.5\nsquared_error = 0.0\nsamples = 458\nvalue = 0.009", fillcolor="#fffefd"] ;
907 -> 908 ;
909 [label="name <= 27.5\nsquared_error = 0.0\nsamples = 129\nvalue = 0.014", fillcolor="#fffdfc"] ;
908 -> 909 ;
910 [label="year <= 2003.5\nsquared_error = 0.0\nsamples = 90\nvalue = 0.017", fillcolor="#fffdfc"] ;
909 -> 910 ;
911 [label="owner <= 0.5\nsquared_error = 0.0\nsamples = 21\nvalue = 0.011", fillcolor="#fffefd"] ;
910 -> 911 ;
912 [label="year <= 2001.5\nsquared_error = 0.0\nsamples = 2\nvalue = 0.02", fillcolor="#fefdfb"] ;
911 -> 912 ;
913 [label="squared_error = 0.0\nsamples = 1\nvalue = 0.012", fillcolor="#fffdfd"] ;
912 -> 913 ;
914 [label="squared_error = 0.0\nsamples = 1\nvalue = 0.027", fillcolor="#fefcfa"] ;
912 -> 914 ;
915 [label="name <= 23.5\nsquared_error = 0.0\nsamples = 19\nvalue = 0.011", fillcolor="#fffefd"] ;
911 -> 915 ;
916 [label="name <= 5.5\nsquared_error = 0.0\nsamples = 17\nvalue = 0.011", fillcolor="#fffefd"] ;
915 -> 916 ;
917 [label="year <= 1997.0\nsquared_error = 0.0\nsamples = 2\nvalue = 0.006", fillcolor="#fffefe"] ;
916 -> 917 ;
918 [label="squared_error = 0.0\nsamples = 1\nvalue = 0.007", fillcolor="#fffefe"] ;
917 -> 918 ;
919 [label="squared_error = 0.0\nsamples = 1\nvalue = 0.005", fillcolor="#fffefe"] ;
917 -> 919 ;
920 [label="fuel <= 0.5\nsquared_error = 0.0\nsamples = 15\nvalue = 0.012", fillcolor="#fffdfd"] ;
916 -> 920 ;
921 [label="name <= 15.5\nsquared_error = 0.0\nsamples = 2\nvalue = 0.008", fillcolor="#fffefe"] ;
920 -> 921 ;
922 [label="squared_error = 0.0\nsamples = 1\nvalue = 0.01", fillcolor="#fffefd"] ;
921 -> 922 ;
923 [label="squared_error = 0.0\nsamples = 1\nvalue = 0.005", fillcolor="#fffefe"] ;
921 -> 923 ;
924 [label="km_driven <= 0.084\nsquared_error = 0.0\nsamples = 13\nvalue = 0.013", fillcolor="#fffdfc"] ;
920 -> 924 ;
925 [label="km_driven <= 0.022\nsquared_error = 0.0\nsamples = 12\nvalue = 0.013", fillcolor="#fffdfc"] ;
924 -> 925 ;
926 [label="year <= 1997.0\nsquared_error = 0.0\nsamples = 2\nvalue = 0.016", fillcolor="#fffdfc"] ;
925 -> 926 ;
927 [label="squared_error = 0.0\nsamples = 1\nvalue = 0.013", fillcolor="#fffdfc"] ;
926 -> 927 ;
928 [label="squared_error = 0.0\nsamples = 1\nvalue = 0.018", fillcolor="#fffdfb"] ;
926 -> 928 ;
929 [label="km_driven <= 0.033\nsquared_error = 0.0\nsamples = 10\nvalue = 0.013", fillcolor="#fffdfd"] ;
925 -> 929 ;
930 [label="squared_error = 0.0\nsamples = 1\nvalue = 0.009", fillcolor="#fffefd"] ;
929 -> 930 ;
931 [label="name <= 20.5\nsquared_error = 0.0\nsamples = 9\nvalue = 0.013", fillcolor="#fffdfc"] ;
929 -> 931 ;
932 [label="km_driven <= 0.061\nsquared_error = 0.0\nsamples = 6\nvalue = 0.013", fillcolor="#fffdfc"] ;
931 -> 932 ;
